{"learner":{"attributes":{"scikit_learn":"{\"_estimator_type\": \"classifier\"}"},"feature_names":["score_if","score_ae","score_lstm","network_risk_score"],"feature_types":["float","float","float","float"],"gradient_booster":{"model":{"gbtree_model_param":{"num_parallel_tree":"1","num_trees":"100"},"iteration_indptr":[0,1,2,3,4,5,6,7,8,9,10,11,12,13,14,15,16,17,18,19,20,21,22,23,24,25,26,27,28,29,30,31,32,33,34,35,36,37,38,39,40,41,42,43,44,45,46,47,48,49,50,51,52,53,54,55,56,57,58,59,60,61,62,63,64,65,66,67,68,69,70,71,72,73,74,75,76,77,78,79,80,81,82,83,84,85,86,87,88,89,90,91,92,93,94,95,96,97,98,99,100],"tree_info":[0,0,0,0,0,0,0,0,0,0,0,0,0,0,0,0,0,0,0,0,0,0,0,0,0,0,0,0,0,0,0,0,0,0,0,0,0,0,0,0,0,0,0,0,0,0,0,0,0,0,0,0,0,0,0,0,0,0,0,0,0,0,0,0,0,0,0,0,0,0,0,0,0,0,0,0,0,0,0,0,0,0,0,0,0,0,0,0,0,0,0,0,0,0,0,0,0,0,0,0],"trees":[{"base_weights":[-1.6720147E-1,-4.5877668E-1,4.2314133E-1,-5.2952224E-1,1.5446762E0,-1.0654715E0,-4.868355E-1,-6.6150105E-1,1.8782324E0,-1.09862044E-1,-7.7882744E-2,-4.6538018E-2,-9.58741E-2,5.8280885E-2,-9.930763E-2,2.611791E-1,5.2844133E-2],"categories":[],"categories_nodes":[],"categories_segments":[],"categories_sizes":[],"default_left":[0,0,0,0,0,0,0,0,0,0,0,0,0,0,0,0,0],"id":0,"left_children":[1,3,-1,5,7,9,11,13,15,-1,-1,-1,-1,-1,-1,-1,-1],"loss_changes":[3.6923635E3,3.8343E2,0E0,5.9150513E1,6.918492E1,9.6461487E-1,2.4031616E1,5.8868127E0,7.828955E1,0E0,0E0,0E0,0E0,0E0,0E0,0E0,0E0],"parents":[2147483647,0,0,1,1,3,3,4,4,5,5,6,6,7,7,8,8],"right_children":[2,4,-1,6,8,10,12,14,16,-1,-1,-1,-1,-1,-1,-1,-1],"split_conditions":[9.5E-1,1E0,4.2314133E-1,5.6351663E-4,8.110452E-3,5.270396E-4,9.287713E-3,4.198056E-1,5.6485824E-2,-1.09862044E-1,-7.7882744E-2,-4.6538018E-2,-9.58741E-2,5.8280885E-2,-9.930763E-2,2.611791E-1,5.2844133E-2],"split_indices":[2,0,0,1,1,1,1,3,1,0,0,0,0,0,0,0,0],"split_type":[0,0,0,0,0,0,0,0,0,0,0,0,0,0,0,0,0],"sum_hessian":[2.8764614E3,2.6984805E3,1.7798105E2,2.6071528E3,9.132765E1,1.9056558E2,2.4165872E3,1.1865404E1,7.946225E1,1.68273E2,2.2292576E1,2.3133943E3,1.03193054E2,2.337125E0,9.528278E0,5.0877415E1,2.8584837E1],"tree_param":{"num_deleted":"0","num_feature":"4","num_nodes":"17","size_leaf_vector":"1"}},{"base_weights":[-1.5582061E-1,-4.2446706E-1,3.1176132E-1,-4.9132985E-1,1.2831825E0,-9.101312E-1,-4.3963724E-1,-7.924254E-1,1.5158267E0,-1.0539643E-1,-7.100519E-2,-2.6528893E-2,-5.2337714E-2,5.4101486E-2,-1.1334439E-1,2.0194428E-1,4.6416618E-2],"categories":[],"categories_nodes":[],"categories_segments":[],"categories_sizes":[],"default_left":[0,0,0,0,0,0,0,0,0,0,0,0,0,0,0,0,0],"id":1,"left_children":[1,3,-1,5,7,9,11,13,15,-1,-1,-1,-1,-1,-1,-1,-1],"loss_changes":[2.506315E3,3.0130402E2,0E0,5.447705E1,4.9248047E1,7.239517E0,3.2832153E1,5.4720755E0,4.6632095E1,0E0,0E0,0E0,0E0,0E0,0E0,0E0,0E0],"parents":[2147483647,0,0,1,1,3,3,4,4,5,5,6,6,7,7,8,8],"right_children":[2,4,-1,6,8,10,12,14,16,-1,-1,-1,-1,-1,-1,-1,-1],"split_conditions":[9.5E-1,1E0,3.1176132E-1,7.1064656E-4,6.97922E-3,5.270396E-4,1.6496255E-3,4.131227E-1,5.6485824E-2,-1.0539643E-1,-7.100519E-2,-2.6528893E-2,-5.2337714E-2,5.4101486E-2,-1.1334439E-1,2.0194428E-1,4.6416618E-2],"split_indices":[2,0,0,1,1,1,1,3,1,0,0,0,0,0,0,0,0],"split_type":[0,0,0,0,0,0,0,0,0,0,0,0,0,0,0,0,0],"sum_hessian":[2.847535E3,2.63237E3,2.1516487E2,2.5338691E3,9.850104E1,2.7656857E2,2.2573005E3,9.685215E0,8.881583E1,1.584176E2,1.1815098E2,7.337611E2,1.5235394E3,1.8530414E0,7.832174E0,5.9434002E1,2.9381823E1],"tree_param":{"num_deleted":"0","num_feature":"4","num_nodes":"17","size_leaf_vector":"1"}},{"base_weights":[-1.4439917E-1,-3.924384E-1,2.5502092E-1,-4.553713E-1,1.0948315E0,-9.7843224E-1,-4.1635686E-1,-6.03195E-1,1.304276E0,-1.0096166E-1,-6.226481E-2,-3.956307E-2,-8.8724814E-2,4.515127E-2,-9.24625E-2,1.7224391E-1,4.094115E-2],"categories":[],"categories_nodes":[],"categories_segments":[],"categories_sizes":[],"default_left":[0,0,0,0,0,0,0,0,0,0,0,0,0,0,0,0,0],"id":2,"left_children":[1,3,-1,5,7,9,11,13,15,-1,-1,-1,-1,-1,-1,-1,-1],"loss_changes":[1.8761908E3,2.4104593E2,0E0,4.9923676E1,3.7996483E1,1.2625275E0,2.2066376E1,4.543979E0,3.426555E1,0E0,0E0,0E0,0E0,0E0,0E0,0E0,0E0],"parents":[2147483647,0,0,1,1,3,3,4,4,5,5,6,6,7,7,8,8],"right_children":[2,4,-1,6,8,10,12,14,16,-1,-1,-1,-1,-1,-1,-1,-1],"split_conditions":[9.5E-1,1E0,2.5502092E-1,5.6351663E-4,8.110452E-3,5.7533413E-1,9.287713E-3,4.198056E-1,5.6485824E-2,-1.0096166E-1,-6.226481E-2,-3.956307E-2,-8.8724814E-2,4.515127E-2,-9.24625E-2,1.7224391E-1,4.094115E-2],"split_indices":[2,0,0,1,1,3,1,3,1,0,0,0,0,0,0,0,0],"split_type":[0,0,0,0,0,0,0,0,0,0,0,0,0,0,0,0,0],"sum_hessian":[2.8046226E3,2.569E3,2.3562263E2,2.465373E3,1.0362689E2,1.6945364E2,2.2959194E3,1.117204E1,9.245486E1,1.5410837E2,1.5345277E1,2.2008882E3,9.503128E1,2.5149705E0,8.657069E0,6.2380257E1,3.0074598E1],"tree_param":{"num_deleted":"0","num_feature":"4","num_nodes":"17","size_leaf_vector":"1"}},{"base_weights":[-1.3352662E-1,-3.6251155E-1,2.2006719E-1,-4.2152154E-1,9.5138055E-1,-8.291588E-1,-3.736885E-1,-7.231461E-1,1.108217E0,8.978108E-2,-8.4271476E-2,-2.080015E-2,-4.5463584E-2,4.600456E-2,-1.07165836E-1,1.3742244E-1,1.3442377E-2],"categories":[],"categories_nodes":[],"categories_segments":[],"categories_sizes":[],"default_left":[0,0,0,0,0,0,0,0,0,0,0,0,0,0,0,0,0],"id":3,"left_children":[1,3,-1,5,7,9,11,13,15,-1,-1,-1,-1,-1,-1,-1,-1],"loss_changes":[1.4733925E3,1.9499548E2,0E0,4.653833E1,2.9213585E1,6.6444855E0,2.8769867E1,4.5629644E0,2.5541374E1,0E0,0E0,0E0,0E0,0E0,0E0,0E0,0E0],"parents":[2147483647,0,0,1,1,3,3,4,4,5,5,6,6,7,7,8,8],"right_children":[2,4,-1,6,8,10,12,14,16,-1,-1,-1,-1,-1,-1,-1,-1],"split_conditions":[9.5E-1,1E0,2.2006719E-1,7.1064656E-4,6.97922E-3,2.2600242E-1,1.6496255E-3,4.131227E-1,7.980754E-2,8.978108E-2,-8.4271476E-2,-2.080015E-2,-4.5463584E-2,4.600456E-2,-1.07165836E-1,1.3742244E-1,1.3442377E-2],"split_indices":[2,0,0,1,1,3,1,3,1,0,0,0,0,0,0,0,0],"split_type":[0,0,0,0,0,0,0,0,0,0,0,0,0,0,0,0,0],"sum_hessian":[2.7541077E3,2.5088354E3,2.4527211E2,2.401651E3,1.07184616E2,2.5050366E2,2.1511472E3,8.869978E0,9.831464E1,1.4429877E0,2.4906067E2,7.0719525E2,1.4439519E3,1.9453908E0,6.924587E0,7.6897606E1,2.1417032E1],"tree_param":{"num_deleted":"0","num_feature":"4","num_nodes":"17","size_leaf_vector":"1"}},{"base_weights":[-1.2327108E-1,-3.344775E-1,1.9627649E-1,-3.8961083E-1,8.3506465E-1,-9.436129E-1,-3.5589442E-1,-5.514216E-1,9.8515797E-1,-9.820015E-2,-5.2325096E-2,-3.3622667E-2,-8.22903E-2,3.550887E-2,-8.635328E-2,1.2909251E-1,3.0474653E-2],"categories":[],"categories_nodes":[],"categories_segments":[],"categories_sizes":[],"default_left":[0,0,0,0,0,0,0,0,0,0,0,0,0,0,0,0,0],"id":4,"left_children":[1,3,-1,5,7,9,11,13,15,-1,-1,-1,-1,-1,-1,-1,-1],"loss_changes":[1.1905409E3,1.5851285E2,0E0,4.34382E1,2.3592735E1,1.6459045E0,2.0028198E1,3.5490966E0,2.0473778E1,0E0,0E0,0E0,0E0,0E0,0E0,0E0,0E0],"parents":[2147483647,0,0,1,1,3,3,4,4,5,5,6,6,7,7,8,8],"right_children":[2,4,-1,6,8,10,12,14,16,-1,-1,-1,-1,-1,-1,-1,-1],"split_conditions":[9.5E-1,1E0,1.9627649E-1,5.270396E-4,8.110452E-3,5.7533413E-1,9.287713E-3,4.198056E-1,5.6485824E-2,-9.820015E-2,-5.2325096E-2,-3.3622667E-2,-8.22903E-2,3.550887E-2,-8.635328E-2,1.2909251E-1,3.0474653E-2],"split_indices":[2,0,0,1,1,3,1,3,1,0,0,0,0,0,0,0,0],"split_type":[0,0,0,0,0,0,0,0,0,0,0,0,0,0,0,0,0],"sum_hessian":[2.699697E3,2.4522517E3,2.4744528E2,2.3424915E3,1.097604E2,1.3283664E2,2.2096548E3,1.046023E1,9.930017E1,1.2049648E2,1.2340156E1,2.1220078E3,8.764686E1,2.6437883E0,7.816441E0,6.789284E1,3.1407335E1],"tree_param":{"num_deleted":"0","num_feature":"4","num_nodes":"17","size_leaf_vector":"1"}},{"base_weights":[-1.1372858E-1,-3.083272E-1,1.7903778E-1,-3.5968062E-1,7.4096584E-1,-9.0834725E-1,-3.276411E-1,-6.6263956E-1,8.566298E-1,-9.477673E-2,-4.9096774E-2,-3.0906025E-2,-7.831156E-2,3.9531976E-2,-1.01935945E-1,1.0590283E-1,9.023314E-3],"categories":[],"categories_nodes":[],"categories_segments":[],"categories_sizes":[],"default_left":[0,0,0,0,0,0,0,0,0,0,0,0,0,0,0,0,0],"id":5,"left_children":[1,3,-1,5,7,9,11,13,15,-1,-1,-1,-1,-1,-1,-1,-1],"loss_changes":[9.8048566E2,1.2960449E2,0E0,3.993985E1,1.8801971E1,1.6032486E0,1.8074081E1,3.8428206E0,1.6068092E1,0E0,0E0,0E0,0E0,0E0,0E0,0E0,0E0],"parents":[2147483647,0,0,1,1,3,3,4,4,5,5,6,6,7,7,8,8],"right_children":[2,4,-1,6,8,10,12,14,16,-1,-1,-1,-1,-1,-1,-1,-1],"split_conditions":[9.5E-1,1E0,1.7903778E-1,5.270396E-4,6.97922E-3,5.7533413E-1,9.287713E-3,4.131227E-1,7.980754E-2,-9.477673E-2,-4.9096774E-2,-3.0906025E-2,-7.831156E-2,3.9531976E-2,-1.01935945E-1,1.0590283E-1,9.023314E-3],"split_indices":[2,0,0,1,1,3,1,3,1,0,0,0,0,0,0,0,0],"split_type":[0,0,0,0,0,0,0,0,0,0,0,0,0,0,0,0,0],"sum_hessian":[2.643635E3,2.399269E3,2.443659E2,2.2879517E3,1.1131734E2,1.2472493E2,2.1632268E3,8.11471E0,1.0320263E2,1.1280056E2,1.1924367E1,2.0800505E3,8.317614E1,2.018888E0,6.0958223E0,8.1339714E1,2.1862913E1],"tree_param":{"num_deleted":"0","num_feature":"4","num_nodes":"17","size_leaf_vector":"1"}},{"base_weights":[-1.0483217E-1,-2.839053E-1,1.6599545E-1,-3.3159283E-1,6.6032356E-1,-7.243911E-1,-2.8887767E-1,-2.5134292E-1,8.1532174E-1,8.9898996E-2,-7.392793E-2,-1.3122717E-2,-3.6747575E-2,2.3524E-2,-9.789463E-2,1.1046537E-1,2.2893658E-2],"categories":[],"categories_nodes":[],"categories_segments":[],"categories_sizes":[],"default_left":[0,0,0,0,0,0,0,0,0,0,0,0,0,0,0,0,0],"id":6,"left_children":[1,3,-1,5,7,9,11,13,15,-1,-1,-1,-1,-1,-1,-1,-1],"loss_changes":[8.1855383E2,1.0608133E2,0E0,3.7352203E1,1.6223888E1,5.955368E0,2.499118E1,6.332965E0,1.6225464E1,0E0,0E0,0E0,0E0,0E0,0E0,0E0,0E0],"parents":[2147483647,0,0,1,1,3,3,4,4,5,5,6,6,7,7,8,8],"right_children":[2,4,-1,6,8,10,12,14,16,-1,-1,-1,-1,-1,-1,-1,-1],"split_conditions":[9.5E-1,1E0,1.6599545E-1,7.1064656E-4,1.1344636E-2,2.2600242E-1,1.6496255E-3,6.008505E-1,5.6485824E-2,8.9898996E-2,-7.392793E-2,-1.3122717E-2,-3.6747575E-2,2.3524E-2,-9.789463E-2,1.1046537E-1,2.2893658E-2],"split_indices":[2,0,0,1,1,3,1,3,1,0,0,0,0,0,0,0,0],"split_type":[0,0,0,0,0,0,0,0,0,0,0,0,0,0,0,0,0],"sum_hessian":[2.5876567E3,2.350037E3,2.3761948E2,2.237674E3,1.1236314E2,2.1790588E2,2.0197682E3,1.6237286E1,9.612585E1,1.4406121E0,2.1646527E2,6.728493E2,1.3469188E3,1.0135732E1,6.101553E0,6.3774593E1,3.2351254E1],"tree_param":{"num_deleted":"0","num_feature":"4","num_nodes":"17","size_leaf_vector":"1"}},{"base_weights":[-9.644303E-2,-2.6102614E-1,1.558109E-1,-3.0520764E-1,5.915158E-1,-8.4634364E-1,-2.7590948E-1,-4.9403986E-1,6.9653654E-1,-8.893041E-2,-4.125529E-2,-2.5635466E-2,-6.856266E-2,2.6089225E-2,-7.925388E-2,1.9156164E-1,5.9103966E-2],"categories":[],"categories_nodes":[],"categories_segments":[],"categories_sizes":[],"default_left":[0,0,0,0,0,0,0,0,0,0,0,0,0,0,0,0,0],"id":7,"left_children":[1,3,-1,5,7,9,11,13,15,-1,-1,-1,-1,-1,-1,-1,-1],"loss_changes":[6.90347E2,8.7012375E1,0E0,3.4524673E1,1.3331787E1,1.7225342E0,1.6498978E1,2.603105E0,1.228006E1,0E0,0E0,0E0,0E0,0E0,0E0,0E0,0E0],"parents":[2147483647,0,0,1,1,3,3,4,4,5,5,6,6,7,7,8,8],"right_children":[2,4,-1,6,8,10,12,14,16,-1,-1,-1,-1,-1,-1,-1,-1],"split_conditions":[9.5E-1,1E0,1.558109E-1,5.270396E-4,8.110452E-3,5.7533413E-1,8.604907E-3,4.198056E-1,3.651276E-1,-8.893041E-2,-4.125529E-2,-2.5635466E-2,-6.856266E-2,2.6089225E-2,-7.925388E-2,1.9156164E-1,5.9103966E-2],"split_indices":[2,0,0,1,1,3,1,3,3,0,0,0,0,0,0,0,0],"split_type":[0,0,0,0,0,0,0,0,0,0,0,0,0,0,0,0,0],"sum_hessian":[2.5326453E3,2.3042747E3,2.2837068E2,2.1913535E3,1.129211E2,1.111181E2,2.0802354E3,9.63402E0,1.0328707E2,1.001497E2,1.0968406E1,1.9870251E3,9.32103E1,2.7655833E0,6.8684363E0,6.8598075E0,9.642727E1],"tree_param":{"num_deleted":"0","num_feature":"4","num_nodes":"17","size_leaf_vector":"1"}},{"base_weights":[-8.86158E-2,-2.3966652E-1,1.4766344E-1,-2.8059548E-1,5.3108937E-1,-8.138984E-1,-2.5296682E-1,-9.5570594E-2,5.938917E-1,-8.580081E-2,-3.853495E-2,-2.3625767E-2,-6.919002E-2,1.2257685E-1,4.2921983E-2],"categories":[],"categories_nodes":[],"categories_segments":[],"categories_sizes":[],"default_left":[0,0,0,0,0,0,0,0,0,0,0,0,0,0,0],"id":8,"left_children":[1,3,-1,5,7,9,11,-1,13,-1,-1,-1,-1,-1,-1],"loss_changes":[5.8693036E2,7.155278E1,0E0,3.1472916E1,1.1257072E1,1.6626358E0,1.4838913E1,0E0,1.0967209E1,0E0,0E0,0E0,0E0,0E0,0E0],"parents":[2147483647,0,0,1,1,3,3,4,4,5,5,6,6,8,8],"right_children":[2,4,-1,6,8,10,12,-1,14,-1,-1,-1,-1,-1,-1],"split_conditions":[9.5E-1,1E0,1.4766344E-1,5.270396E-4,5.1691774E-3,5.7533413E-1,9.287713E-3,-9.5570594E-2,4.4653705E-1,-8.580081E-2,-3.853495E-2,-2.3625767E-2,-6.919002E-2,1.2257685E-1,4.2921983E-2],"split_indices":[2,0,0,1,1,3,1,0,3,0,0,0,0,0,0],"split_type":[0,0,0,0,0,0,0,0,0,0,0,0,0,0,0],"sum_hessian":[2.4799502E3,2.2624634E3,2.1748674E2,2.1489834E3,1.1348017E2,1.0444635E2,2.044537E3,4.022921E0,1.0945725E2,9.379054E1,1.0655805E1,1.9710422E3,7.3494675E1,2.1296164E1,8.816109E1],"tree_param":{"num_deleted":"0","num_feature":"4","num_nodes":"15","size_leaf_vector":"1"}},{"base_weights":[-8.136137E-2,-2.1982387E-1,1.4102018E-1,-2.576261E-1,4.7616678E-1,-6.298981E-1,-2.2018969E-1,-2.640971E-1,5.9582615E-1,8.8460654E-2,-6.4605325E-2,-7.2797122E-3,-2.9520204E-2,1.6724376E-2,-9.473994E-2,8.618983E-2,8.639323E-3],"categories":[],"categories_nodes":[],"categories_segments":[],"categories_sizes":[],"default_left":[0,0,0,0,0,0,0,0,0,0,0,0,0,0,0,0,0],"id":9,"left_children":[1,3,-1,5,7,9,11,13,15,-1,-1,-1,-1,-1,-1,-1,-1],"loss_changes":[5.0232526E2,5.866635E1,0E0,2.928363E1,1.0342436E1,5.2781677E0,2.1204315E1,5.0784235E0,1.3383823E1,0E0,0E0,0E0,0E0,0E0,0E0,0E0,0E0],"parents":[2147483647,0,0,1,1,3,3,4,4,5,5,6,6,7,7,8,8],"right_children":[2,4,-1,6,8,10,12,14,16,-1,-1,-1,-1,-1,-1,-1,-1],"split_conditions":[9.5E-1,1E0,1.4102018E-1,7.1064656E-4,1.1344636E-2,2.2600242E-1,1.6496255E-3,6.008505E-1,5.6485824E-2,8.8460654E-2,-6.4605325E-2,-7.2797122E-3,-2.9520204E-2,1.6724376E-2,-9.473994E-2,8.618983E-2,8.639323E-3],"split_indices":[2,0,0,1,1,3,1,3,1,0,0,0,0,0,0,0,0],"split_type":[0,0,0,0,0,0,0,0,0,0,0,0,0,0,0,0,0],"sum_hessian":[2.4297656E3,2.2241494E3,2.056162E2,2.110167E3,1.13982346E2,1.9136687E2,1.9188002E3,1.5692816E1,9.828953E1,1.4523935E0,1.8991447E2,6.478343E2,1.270966E3,1.0083044E1,5.6097717E0,6.411236E1,3.417717E1],"tree_param":{"num_deleted":"0","num_feature":"4","num_nodes":"17","size_leaf_vector":"1"}},{"base_weights":[-7.4562296E-2,-2.0138954E-1,1.3551922E-1,-2.3616172E-1,4.3009293E-1,-7.5603086E-1,-2.1124656E-1,7.853188E-1,1.9650818E-1,-8.0386214E-2,-3.150249E-2,-3.2151964E-2,-1.4234066E-2,1.475011E-1,6.3573085E-2,-4.3873053E-2,3.6140744E-2],"categories":[],"categories_nodes":[],"categories_segments":[],"categories_sizes":[],"default_left":[0,0,0,0,0,0,0,0,0,0,0,0,0,0,0,0,0],"id":10,"left_children":[1,3,-1,5,7,9,11,13,15,-1,-1,-1,-1,-1,-1,-1,-1],"loss_changes":[4.322795E2,4.8171333E1,0E0,2.6724182E1,9.355331E0,1.7408905E0,1.5014557E1,3.718546E0,7.5409665E0,0E0,0E0,0E0,0E0,0E0,0E0,0E0,0E0],"parents":[2147483647,0,0,1,1,3,3,4,4,5,5,6,6,7,7,8,8],"right_children":[2,4,-1,6,8,10,12,14,16,-1,-1,-1,-1,-1,-1,-1,-1],"split_conditions":[9.5E-1,1E0,1.3551922E-1,5.270396E-4,5.1215065E-1,5.7533413E-1,4.2162818E-1,3.547995E-1,1.3675515E-2,-8.0386214E-2,-3.150249E-2,-3.2151964E-2,-1.4234066E-2,1.475011E-1,6.3573085E-2,-4.3873053E-2,3.6140744E-2],"split_indices":[2,0,0,1,3,3,3,3,1,0,0,0,0,0,0,0,0],"split_type":[0,0,0,0,0,0,0,0,0,0,0,0,0,0,0,0,0],"sum_hessian":[2.3814092E3,2.1881658E3,1.9324342E2,2.0745576E3,1.136082E2,9.3535736E1,1.9810219E3,4.413203E1,6.947617E1,8.364125E1,9.894488E0,7.604212E2,1.2206007E3,6.2865734E0,3.7845455E1,1.397601E1,5.550016E1],"tree_param":{"num_deleted":"0","num_feature":"4","num_nodes":"17","size_leaf_vector":"1"}},{"base_weights":[-6.8181455E-2,-1.8417403E-1,1.3090569E-1,-2.162336E-1,3.8827896E-1,-6.8451726E-1,-1.9090421E-1,-5.937828E-1,4.576278E-1,-7.9550184E-2,-4.858839E-2,-2.5263939E-2,-7.629327E-3,2.2179497E-2,-9.416597E-2,6.1926484E-2,-1.0733124E-2],"categories":[],"categories_nodes":[],"categories_segments":[],"categories_sizes":[],"default_left":[0,0,0,0,0,0,0,0,0,0,0,0,0,0,0,0,0],"id":11,"left_children":[1,3,-1,5,7,9,11,13,15,-1,-1,-1,-1,-1,-1,-1,-1],"loss_changes":[3.737167E2,3.967337E1,0E0,2.4106728E1,8.087427E0,1.9165115E0,1.3706741E1,2.479916E0,9.906492E0,0E0,0E0,0E0,0E0,0E0,0E0,0E0,0E0],"parents":[2147483647,0,0,1,1,3,3,4,4,5,5,6,6,7,7,8,8],"right_children":[2,4,-1,6,8,10,12,14,16,-1,-1,-1,-1,-1,-1,-1,-1],"split_conditions":[9.5E-1,1E0,1.3090569E-1,5.6351663E-4,6.97922E-3,4.411556E-4,5.3341436E-1,4.131227E-1,7.980754E-2,-7.9550184E-2,-4.858839E-2,-2.5263939E-2,-7.629327E-3,2.2179497E-2,-9.416597E-2,6.1926484E-2,-1.0733124E-2],"split_indices":[2,0,0,1,1,1,3,3,1,0,0,0,0,0,0,0,0],"split_type":[0,0,0,0,0,0,0,0,0,0,0,0,0,0,0,0,0],"sum_hessian":[2.3368843E3,2.1561565E3,1.8072769E2,2.0423967E3,1.1375978E2,1.0346861E2,1.9389282E3,7.004564E0,1.0675522E2,6.4451866E1,3.901675E1,1.2593663E3,6.795619E2,2.2027576E0,4.8018064E0,8.293193E1,2.3823286E1],"tree_param":{"num_deleted":"0","num_feature":"4","num_nodes":"17","size_leaf_vector":"1"}},{"base_weights":[-6.2372193E-2,-1.6839875E-1,1.269946E-1,-1.9775364E-1,3.5108125E-1,-5.398348E-1,-1.6601704E-1,6.7281145E-1,1.3938163E-1,-7.658743E-2,-4.0862113E-2,-2.4186762E-3,-2.3917848E-2,1.291074E-1,5.2488614E-2,-7.2267726E-2,2.5117774E-2],"categories":[],"categories_nodes":[],"categories_segments":[],"categories_sizes":[],"default_left":[0,0,0,0,0,0,0,0,0,0,0,0,0,0,0,0,0],"id":12,"left_children":[1,3,-1,5,7,9,11,13,15,-1,-1,-1,-1,-1,-1,-1,-1],"loss_changes":[3.2448666E2,3.2508057E1,0E0,2.1776299E1,7.680086E0,4.7454453E0,1.9134083E1,3.4411316E0,6.937501E0,0E0,0E0,0E0,0E0,0E0,0E0,0E0,0E0],"parents":[2147483647,0,0,1,1,3,3,4,4,5,5,6,6,7,7,8,8],"right_children":[2,4,-1,6,8,10,12,14,16,-1,-1,-1,-1,-1,-1,-1,-1],"split_conditions":[9.5E-1,1E0,1.269946E-1,7.1064656E-4,5.1215065E-1,4.411556E-4,1.6496255E-3,3.651276E-1,5.45565E-1,-7.658743E-2,-4.0862113E-2,-2.4186762E-3,-2.3917848E-2,1.291074E-1,5.2488614E-2,-7.2267726E-2,2.5117774E-2],"split_indices":[2,0,0,1,3,1,1,3,3,0,0,0,0,0,0,0,0],"split_type":[0,0,0,0,0,0,0,0,0,0,0,0,0,0,0,0,0],"sum_hessian":[2.2945562E3,2.1262239E3,1.6833238E2,2.0130872E3,1.1313662E2,1.6954903E2,1.8435382E3,4.4035534E1,6.910108E1,6.04963E1,1.0905273E2,6.278068E2,1.2157313E3,7.009796E0,3.7025738E1,7.3053503E0,6.1795734E1],"tree_param":{"num_deleted":"0","num_feature":"4","num_nodes":"17","size_leaf_vector":"1"}},{"base_weights":[-5.690857E-2,-1.5372144E-1,1.2364826E-1,-1.8068935E-1,3.172514E-1,-6.645236E-1,-1.6031897E-1,-2.4174628E-1,4.254396E-1,-7.193235E-2,-1.9675417E-2,-1.440275E-2,-6.0867917E-2,2.9669538E-2,-5.0242245E-2,6.799521E-2,-1.1989517E-3],"categories":[],"categories_nodes":[],"categories_segments":[],"categories_sizes":[],"default_left":[0,0,0,0,0,0,0,0,0,0,0,0,0,0,0,0,0],"id":13,"left_children":[1,3,-1,5,7,9,11,13,15,-1,-1,-1,-1,-1,-1,-1,-1],"loss_changes":[2.8273398E2,2.6732136E1,0E0,1.9477928E1,7.0036745E0,1.9081993E0,1.3850082E1,2.835641E0,1.069216E1,0E0,0E0,0E0,0E0,0E0,0E0,0E0,0E0],"parents":[2147483647,0,0,1,1,3,3,4,4,5,5,6,6,7,7,8,8],"right_children":[2,4,-1,6,8,10,12,14,16,-1,-1,-1,-1,-1,-1,-1,-1],"split_conditions":[9.5E-1,1E0,1.2364826E-1,5.270396E-4,1.2703708E-2,5.7533413E-1,9.287713E-3,4.8055893E-1,5.6485824E-2,-7.193235E-2,-1.9675417E-2,-1.440275E-2,-6.0867917E-2,2.9669538E-2,-5.0242245E-2,6.799521E-2,-1.1989517E-3],"split_indices":[2,0,0,1,1,3,1,3,1,0,0,0,0,0,0,0,0],"split_type":[0,0,0,0,0,0,0,0,0,0,0,0,0,0,0,0,0],"sum_hessian":[2.2554355E3,2.0991882E3,1.5624722E2,1.9860815E3,1.1310672E2,7.8962166E1,1.9071194E3,1.8140749E1,9.4965965E1,7.020032E1,8.7618475E0,1.8415275E3,6.559189E1,5.8725276E0,1.2268222E1,5.968474E1,3.528123E1],"tree_param":{"num_deleted":"0","num_feature":"4","num_nodes":"17","size_leaf_vector":"1"}},{"base_weights":[-5.190041E-2,-1.4026418E-1,1.2076195E-1,-1.6491698E-1,2.883053E-1,-4.8460203E-1,-1.3671547E-1,1.1790768E0,2.210547E-1,9.415736E-2,-5.0323844E-2,-2.6230006E-2,-6.1535817E-3,1.0979642E-2,1.3510847E-1,-9.994033E-2,2.9527232E-2],"categories":[],"categories_nodes":[],"categories_segments":[],"categories_sizes":[],"default_left":[0,0,0,0,0,0,0,0,0,0,0,0,0,0,0,0,0],"id":14,"left_children":[1,3,-1,5,7,9,11,13,15,-1,-1,-1,-1,-1,-1,-1,-1],"loss_changes":[2.4718454E2,2.1969143E1,0E0,1.762791E1,6.5220222E0,4.6920815E0,1.7024734E1,1.2710505E0,9.9424E0,0E0,0E0,0E0,0E0,0E0,0E0,0E0,0E0],"parents":[2147483647,0,0,1,1,3,3,4,4,5,5,6,6,7,7,8,8],"right_children":[2,4,-1,6,8,10,12,14,16,-1,-1,-1,-1,-1,-1,-1,-1],"split_conditions":[9.5E-1,1E0,1.2076195E-1,7.1064656E-4,3.651276E-1,2.2600242E-1,4.2162818E-1,1.2028099E-2,4.0583232E-1,9.415736E-2,-5.0323844E-2,-2.6230006E-2,-6.1535817E-3,1.0979642E-2,1.3510847E-1,-9.994033E-2,2.9527232E-2],"split_indices":[2,0,0,1,3,3,3,1,3,0,0,0,0,0,0,0,0],"split_type":[0,0,0,0,0,0,0,0,0,0,0,0,0,0,0,0,0],"sum_hessian":[2.2184448E3,2.0738398E3,1.4460513E2,1.961616E3,1.1222376E2,1.5770697E2,1.803909E3,6.7172675E0,1.055065E2,1.3954471E0,1.5631152E2,6.7457306E2,1.1293359E3,1.1578511E0,5.5594163E0,5.3335795E0,1.0017292E2],"tree_param":{"num_deleted":"0","num_feature":"4","num_nodes":"17","size_leaf_vector":"1"}},{"base_weights":[-4.7163095E-2,-1.2771747E-1,1.1825446E-1,-1.5028022E-1,2.6049864E-1,-6.312213E-1,-1.3287713E-1,7.493709E-1,1.3981277E-1,-7.0670225E-2,1.9459038E-3,-1.1594533E-2,-5.2555364E-2,2.1423234E-2,1.3852647E-1,-9.164237E-2,2.0362278E-2],"categories":[],"categories_nodes":[],"categories_segments":[],"categories_sizes":[],"default_left":[0,0,0,0,0,0,0,0,0,0,0,0,0,0,0,0,0],"id":15,"left_children":[1,3,-1,5,7,9,11,13,15,-1,-1,-1,-1,-1,-1,-1,-1],"loss_changes":[2.1669833E2,1.8018005E1,0E0,1.6157475E1,6.568508E0,3.3288288E0,1.2398499E1,7.245611E0,6.383355E0,0E0,0E0,0E0,0E0,0E0,0E0,0E0,0E0],"parents":[2147483647,0,0,1,1,3,3,4,4,5,5,6,6,7,7,8,8],"right_children":[2,4,-1,6,8,10,12,14,16,-1,-1,-1,-1,-1,-1,-1,-1],"split_conditions":[9.5E-1,1E0,1.1825446E-1,5.041974E-4,4.4653705E-1,5.741191E-1,8.604907E-3,4.0643984E-1,6.97922E-3,-7.0670225E-2,1.9459038E-3,-1.1594533E-2,-5.2555364E-2,2.1423234E-2,1.3852647E-1,-9.164237E-2,2.0362278E-2],"split_indices":[2,0,0,1,3,3,1,3,1,0,0,0,0,0,0,0,0],"split_type":[0,0,0,0,0,0,0,0,0,0,0,0,0,0,0,0,0],"sum_hessian":[2.1850586E3,2.0515632E3,1.3349547E2,1.9394568E3,1.12106476E2,6.649764E1,1.8729591E3,2.1164484E1,9.094199E1,5.9508385E1,6.989259E0,1.7967792E3,7.617998E1,1.22186985E1,8.945786E0,4.419814E0,8.652218E1],"tree_param":{"num_deleted":"0","num_feature":"4","num_nodes":"17","size_leaf_vector":"1"}},{"base_weights":[-4.2868387E-2,-1.162746E-1,1.16061784E-1,-4.3342498E-1,-9.114147E-2,-2.5893137E-1,-6.398028E-1,-2.0972066E-1,-2.493437E-2,-4.162093E-2,6.6814E-2,-8.357217E-2,-4.8521776E-2,3.6576077E-2,-3.516721E-2,4.9093246E-2,-6.472025E-3],"categories":[],"categories_nodes":[],"categories_segments":[],"categories_sizes":[],"default_left":[0,0,0,0,0,0,0,0,0,0,0,0,0,0,0,0,0],"id":16,"left_children":[1,3,-1,5,7,9,11,13,15,-1,-1,-1,-1,-1,-1,-1,-1],"loss_changes":[1.9050867E2,1.6157173E1,0E0,5.19775E0,1.4785804E1,1.2289986E1,1.6404457E0,5.5260723E1,2.4868717E1,0E0,0E0,0E0,0E0,0E0,0E0,0E0,0E0],"parents":[2147483647,0,0,1,1,3,3,4,4,5,5,6,6,7,7,8,8],"right_children":[2,4,-1,6,8,10,12,14,16,-1,-1,-1,-1,-1,-1,-1,-1],"split_conditions":[9.5E-1,7.1064656E-4,1.16061784E-1,4.2648846E-1,4.2162818E-1,4.0826246E-1,4.90887E-1,1.093162E-3,4.5078978E-1,-4.162093E-2,6.6814E-2,-8.357217E-2,-4.8521776E-2,3.6576077E-2,-3.516721E-2,4.9093246E-2,-6.472025E-3],"split_indices":[2,1,0,3,3,3,3,1,3,0,0,0,0,0,0,0,0],"split_type":[0,0,0,0,0,0,0,0,0,0,0,0,0,0,0,0,0],"sum_hessian":[2.1539292E3,2.0309552E3,1.22974014E2,1.4793575E2,1.8830195E3,8.138171E1,6.655405E1,6.738906E2,1.2091289E3,7.004893E1,1.1332772E1,2.7409464E1,3.914458E1,1.3302419E2,5.4086646E2,8.57642E1,1.1233646E3],"tree_param":{"num_deleted":"0","num_feature":"4","num_nodes":"17","size_leaf_vector":"1"}},{"base_weights":[-3.900241E-2,-1.0576945E-1,1.14132725E-1,-1.2643142E-1,2.4436732E-1,-6.4361364E-1,-1.1295879E-1,1.1235152E0,1.7985924E-1,-7.128281E-2,7.219909E-3,-1.06144985E-2,-1.0480069E-1,1.1126275E-2,1.2905167E-1,-9.144493E-2,2.4599975E-2],"categories":[],"categories_nodes":[],"categories_segments":[],"categories_sizes":[],"default_left":[0,0,0,0,0,0,0,0,0,0,0,0,0,0,0,0,0],"id":17,"left_children":[1,3,-1,5,7,9,11,13,15,-1,-1,-1,-1,-1,-1,-1,-1],"loss_changes":[1.6790744E2,1.4615744E1,0E0,1.3196289E1,6.188181E0,2.4363213E0,1.17213955E1,1.1263151E0,7.9090986E0,0E0,0E0,0E0,0E0,0E0,0E0,0E0,0E0],"parents":[2147483647,0,0,1,1,3,3,4,4,5,5,6,6,7,7,8,8],"right_children":[2,4,-1,6,8,10,12,14,16,-1,-1,-1,-1,-1,-1,-1,-1],"split_conditions":[9.5E-1,1E0,1.14132725E-1,4.411556E-4,3.651276E-1,6.008505E-1,1.5067144E-2,1.2028099E-2,4.0583232E-1,-7.128281E-2,7.219909E-3,-1.06144985E-2,-1.0480069E-1,1.1126275E-2,1.2905167E-1,-9.144493E-2,2.4599975E-2],"split_indices":[2,0,0,1,3,3,1,1,3,0,0,0,0,0,0,0,0],"split_type":[0,0,0,0,0,0,0,0,0,0,0,0,0,0,0,0,0],"sum_hessian":[2.1280808E3,2.0150094E3,1.130715E2,1.9033306E3,1.1167877E2,4.7135555E1,1.8561951E3,6.5120935E0,1.0516668E2,4.2983498E1,4.1520567E0,1.8438721E3,1.2323006E1,1.1581843E0,5.3539095E0,5.2630215E0,9.9903656E1],"tree_param":{"num_deleted":"0","num_feature":"4","num_nodes":"17","size_leaf_vector":"1"}},{"base_weights":[-3.5377555E-2,-9.615167E-2,1.1242576E-1,-5.5546886E-1,-8.206545E-2,-6.354162E-1,5.5560164E-2,-1.0074613E-1,2.230298E-1,-7.930709E-2,-4.7361355E-2,9.6388794E-2,-3.0696804E-2,-9.4378395E-3,-1.029222E-1,6.944613E-2,1.0891559E-2],"categories":[],"categories_nodes":[],"categories_segments":[],"categories_sizes":[],"default_left":[0,0,0,0,0,0,0,0,0,0,0,0,0,0,0,0,0],"id":18,"left_children":[1,3,-1,5,7,9,11,13,15,-1,-1,-1,-1,-1,-1,-1,-1],"loss_changes":[1.4831174E2,1.2888697E1,0E0,2.932621E0,1.1083793E1,9.643383E-1,2.8584247E0,1.0719423E1,5.9651074E0,0E0,0E0,0E0,0E0,0E0,0E0,0E0,0E0],"parents":[2147483647,0,0,1,1,3,3,4,4,5,5,6,6,7,7,8,8],"right_children":[2,4,-1,6,8,10,12,14,16,-1,-1,-1,-1,-1,-1,-1,-1],"split_conditions":[9.5E-1,5.041974E-4,1.1242576E-1,5.741191E-1,1E0,3.8153097E-1,6.2879705E-1,1.5067144E-2,4.4653705E-1,-7.930709E-2,-4.7361355E-2,9.6388794E-2,-3.0696804E-2,-9.4378395E-3,-1.029222E-1,6.944613E-2,1.0891559E-2],"split_indices":[2,1,0,3,0,3,3,1,3,0,0,0,0,0,0,0,0],"split_type":[0,0,0,0,0,0,0,0,0,0,0,0,0,0,0,0,0],"sum_hessian":[2.101901E3,1.9981014E3,1.0379935E2,5.831037E1,1.9397911E3,5.1528454E1,6.7819176E0,1.8285034E3,1.112877E2,2.4122698E1,2.7405756E1,1.4614375E0,5.3204803E0,1.8171426E3,1.1360812E1,2.069721E1,9.059049E1],"tree_param":{"num_deleted":"0","num_feature":"4","num_nodes":"17","size_leaf_vector":"1"}},{"base_weights":[-3.205451E-2,-8.734917E-2,1.1090684E-1,-3.6747277E-1,-6.644931E-2,-2.7552053E-1,-8.308066E-1,-1.7657366E-1,-5.783938E-3,-4.6865974E-2,6.7363866E-3,-1.010306E-1,-3.958135E-2,3.4556646E-2,-3.1182006E-2,4.4876475E-2,-4.206237E-3],"categories":[],"categories_nodes":[],"categories_segments":[],"categories_sizes":[],"default_left":[0,0,0,0,0,0,0,0,0,0,0,0,0,0,0,0,0],"id":19,"left_children":[1,3,-1,5,7,9,11,13,15,-1,-1,-1,-1,-1,-1,-1,-1],"loss_changes":[1.3127357E2,1.158971E1,0E0,5.62973E0,1.2340095E1,7.729288E0,1.339364E0,4.6441742E1,1.9677696E1,0E0,0E0,0E0,0E0,0E0,0E0,0E0,0E0],"parents":[2147483647,0,0,1,1,3,3,4,4,5,5,6,6,7,7,8,8],"right_children":[2,4,-1,6,8,10,12,14,16,-1,-1,-1,-1,-1,-1,-1,-1],"split_conditions":[9.5E-1,7.1064656E-4,1.1090684E-1,6.606966E-4,4.2162818E-1,5.6351663E-4,6.9351215E-4,1.093162E-3,4.5078978E-1,-4.6865974E-2,6.7363866E-3,-1.010306E-1,-3.958135E-2,3.4556646E-2,-3.1182006E-2,4.4876475E-2,-4.206237E-3],"split_indices":[2,1,0,1,3,1,1,1,3,0,0,0,0,0,0,0,0],"split_type":[0,0,0,0,0,0,0,0,0,0,0,0,0,0,0,0,0],"sum_hessian":[2.0779358E3,1.9827809E3,9.5154884E1,1.3651184E2,1.846269E3,1.1523683E2,2.127501E1,6.551254E2,1.1911437E3,7.3480225E1,4.1756603E1,1.4124124E1,7.1508846E0,1.344613E2,5.206641E2,8.7200424E1,1.1039432E3],"tree_param":{"num_deleted":"0","num_feature":"4","num_nodes":"17","size_leaf_vector":"1"}},{"base_weights":[-2.9122392E-2,-7.937359E-2,1.095477E-1,-1.3541307E-1,1.9150488E-2,-2.7183468E-2,-4.0462595E-1,-2.6569334E-1,2.1600653E-1,1.6768606E-3,-5.0330073E-2,-5.2429236E-2,4.179539E-2,-1.9458765E-2,-5.7650417E-2,3.9361577E-2,-1.3047486E-3],"categories":[],"categories_nodes":[],"categories_segments":[],"categories_sizes":[],"default_left":[0,0,0,0,0,0,0,0,0,0,0,0,0,0,0,0,0],"id":20,"left_children":[1,3,-1,5,7,9,11,13,15,-1,-1,-1,-1,-1,-1,-1,-1],"loss_changes":[1.16431755E2,1.0888377E1,0E0,3.661111E1,4.019004E1,1.8791178E1,3.5689045E1,6.3619328E0,1.7245308E1,0E0,0E0,0E0,0E0,0E0,0E0,0E0,0E0],"parents":[2147483647,0,0,1,1,3,3,4,4,5,5,6,6,7,7,8,8],"right_children":[2,4,-1,6,8,10,12,14,16,-1,-1,-1,-1,-1,-1,-1,-1],"split_conditions":[9.5E-1,5.3341436E-1,1.095477E-1,2.824434E-3,2.186025E-3,4.927096E-1,1E0,1.8625387E-3,6.470231E-1,1.6768606E-3,-5.0330073E-2,-5.2429236E-2,4.179539E-2,-1.9458765E-2,-5.7650417E-2,3.9361577E-2,-1.3047486E-3],"split_indices":[2,3,0,1,1,3,0,1,3,0,0,0,0,0,0,0,0],"split_type":[0,0,0,0,0,0,0,0,0,0,0,0,0,0,0,0,0],"sum_hessian":[2.0577458E3,1.9706207E3,8.712509E1,1.2559022E3,7.147185E2,8.965643E2,3.593379E2,2.9194077E2,4.2277777E2,8.216771E2,7.4887146E1,3.1401813E2,4.5319767E1,2.3891017E2,5.3030582E1,2.377259E2,1.8505185E2],"tree_param":{"num_deleted":"0","num_feature":"4","num_nodes":"17","size_leaf_vector":"1"}},{"base_weights":[-2.6539925E-2,-7.2241716E-2,1.0832459E-1,-5.65262E-1,-6.146362E-2,-6.410327E-1,1.277305E-1,-1.5794986E-1,-2.1333752E-2,-7.8673616E-2,-5.268208E-2,4.450025E-2,-5.55679E-2,1.0427658E-2,-3.6701825E-2,-2.020956E-2,2.389056E-3],"categories":[],"categories_nodes":[],"categories_segments":[],"categories_sizes":[],"default_left":[0,0,0,0,0,0,0,0,0,0,0,0,0,0,0,0,0],"id":21,"left_children":[1,3,-1,5,7,9,11,13,15,-1,-1,-1,-1,-1,-1,-1,-1],"loss_changes":[1.0346958E2,1.0374053E1,0E0,2.2759085E0,7.423209E0,2.1509647E-1,1.3210431E0,3.0917461E1,1.108811E1,0E0,0E0,0E0,0E0,0E0,0E0,0E0,0E0],"parents":[2147483647,0,0,1,1,3,3,4,4,5,5,6,6,7,7,8,8],"right_children":[2,4,-1,6,8,10,12,14,16,-1,-1,-1,-1,-1,-1,-1,-1],"split_conditions":[9.5E-1,4.411556E-4,1.0832459E-1,6.008505E-1,4.0036452E-1,2.644426E-4,3.8962488E-4,1.6084443E-3,1.2437232E-3,-7.8673616E-2,-5.268208E-2,4.450025E-2,-5.55679E-2,1.0427658E-2,-3.6701825E-2,-2.020956E-2,2.389056E-3],"split_indices":[2,1,0,3,3,1,1,1,1,0,0,0,0,0,0,0,0],"split_type":[0,0,0,0,0,0,0,0,0,0,0,0,0,0,0,0,0],"sum_hessian":[2.0375048E3,1.9578154E3,7.968937E1,4.0784252E1,1.9170311E3,3.6832073E1,3.9521794E0,5.622499E2,1.3547812E3,1.3597266E1,2.3234806E1,2.9373622E0,1.0148171E0,2.4963876E2,3.126111E2,2.7042444E2,1.0843568E3],"tree_param":{"num_deleted":"0","num_feature":"4","num_nodes":"17","size_leaf_vector":"1"}},{"base_weights":[-2.4066525E-2,-6.5580934E-2,1.0721741E-1,-3.2305202E-1,-4.7058363E-2,-2.3154457E-1,-7.9503506E-1,-1.3892737E-1,2.366307E-3,-1.4583444E-3,-5.0911304E-2,-9.828431E-2,-3.607995E-2,1.3783983E-2,-3.338374E-2,4.0824365E-2,-3.089306E-3],"categories":[],"categories_nodes":[],"categories_segments":[],"categories_sizes":[],"default_left":[0,0,0,0,0,0,0,0,0,0,0,0,0,0,0,0,0],"id":22,"left_children":[1,3,-1,5,7,9,11,13,15,-1,-1,-1,-1,-1,-1,-1,-1],"loss_changes":[9.2073524E1,9.278637E0,0E0,5.4572735E0,8.260464E0,6.6661377E0,1.3417377E0,3.4374577E1,1.5993108E1,0E0,0E0,0E0,0E0,0E0,0E0,0E0,0E0],"parents":[2147483647,0,0,1,1,3,3,4,4,5,5,6,6,7,7,8,8],"right_children":[2,4,-1,6,8,10,12,14,16,-1,-1,-1,-1,-1,-1,-1,-1],"split_conditions":[9.5E-1,7.1064656E-4,1.0721741E-1,6.606966E-4,4.2162818E-1,4.2648846E-1,6.9351215E-4,1.6084443E-3,4.5078978E-1,-1.4583444E-3,-5.0911304E-2,-9.828431E-2,-3.607995E-2,1.3783983E-2,-3.338374E-2,4.0824365E-2,-3.089306E-3],"split_indices":[2,1,0,1,3,3,1,1,3,0,0,0,0,0,0,0,0],"split_type":[0,0,0,0,0,0,0,0,0,0,0,0,0,0,0,0,0],"sum_hessian":[2.0206141E3,1.9477919E3,7.2822296E1,1.2961739E2,1.8181744E3,1.09816826E2,1.9800564E1,6.353658E2,1.1828086E3,6.222851E1,4.7588314E1,1.2940412E1,6.860151E0,2.6267166E2,3.7269415E2,8.872973E1,1.0940789E3],"tree_param":{"num_deleted":"0","num_feature":"4","num_nodes":"17","size_leaf_vector":"1"}},{"base_weights":[-2.1838717E-2,-5.954613E-2,1.06209E-1,-5.269127E-1,-4.988974E-2,-6.0577625E-1,1.5556733E-1,-6.470657E-2,1.8709579E-1,-7.580265E-2,-4.893596E-2,5.0348468E-2,-3.1593647E-2,-5.870773E-3,-1.0078802E-1,1.061118E-1,1.2552238E-2],"categories":[],"categories_nodes":[],"categories_segments":[],"categories_sizes":[],"default_left":[0,0,0,0,0,0,0,0,0,0,0,0,0,0,0,0,0],"id":23,"left_children":[1,3,-1,5,7,9,11,13,15,-1,-1,-1,-1,-1,-1,-1,-1],"loss_changes":[8.2057556E1,8.72737E0,0E0,2.2018995E0,6.688854E0,2.548542E-1,9.550068E-1,1.0070362E1,5.902056E0,0E0,0E0,0E0,0E0,0E0,0E0,0E0,0E0],"parents":[2147483647,0,0,1,1,3,3,4,4,5,5,6,6,7,7,8,8],"right_children":[2,4,-1,6,8,10,12,14,16,-1,-1,-1,-1,-1,-1,-1,-1],"split_conditions":[9.5E-1,4.411556E-4,1.06209E-1,6.008505E-1,1E0,2.644426E-4,7.223572E-1,1.5067144E-2,3.651276E-1,-7.580265E-2,-4.893596E-2,5.0348468E-2,-3.1593647E-2,-5.870773E-3,-1.0078802E-1,1.061118E-1,1.2552238E-2],"split_indices":[2,1,0,3,0,1,3,1,3,0,0,0,0,0,0,0,0],"split_type":[0,0,0,0,0,0,0,0,0,0,0,0,0,0,0,0,0],"sum_hessian":[2.0051167E3,1.9386216E3,6.649516E1,3.8159245E1,1.9004623E3,3.4307278E1,3.8519657E0,1.7893174E3,1.1114493E2,1.2477644E1,2.1829634E1,2.1774342E0,1.6745316E0,1.7790643E3,1.0253097E1,6.2463193E0,1.04898605E2],"tree_param":{"num_deleted":"0","num_feature":"4","num_nodes":"17","size_leaf_vector":"1"}},{"base_weights":[-1.9700324E-2,-5.3969868E-2,1.05284505E-1,-1.01788424E-1,2.8360708E-2,-3.2951573E-3,-3.5613802E-1,-2.1624775E-1,2.0684397E-1,3.7119042E-3,-4.5660328E-2,-4.6807777E-2,3.6989827E-2,-1.6581623E-2,-7.2843246E-2,3.5626467E-2,1.3570944E-3],"categories":[],"categories_nodes":[],"categories_segments":[],"categories_sizes":[],"default_left":[0,0,0,0,0,0,0,0,0,0,0,0,0,0,0,0,0],"id":24,"left_children":[1,3,-1,5,7,9,11,13,15,-1,-1,-1,-1,-1,-1,-1,-1],"loss_changes":[7.321632E1,7.600184E0,0E0,3.05858E1,3.1033506E1,1.6159563E1,2.7871548E1,7.6262503E0,1.18609085E1,0E0,0E0,0E0,0E0,0E0,0E0,0E0,0E0],"parents":[2147483647,0,0,1,1,3,3,4,4,5,5,6,6,7,7,8,8],"right_children":[2,4,-1,6,8,10,12,14,16,-1,-1,-1,-1,-1,-1,-1,-1],"split_conditions":[9.5E-1,5.3341436E-1,1.05284505E-1,2.824434E-3,2.2972594E-3,4.927096E-1,1E0,7.758202E-1,6.470231E-1,3.7119042E-3,-4.5660328E-2,-4.6807777E-2,3.6989827E-2,-1.6581623E-2,-7.2843246E-2,3.5626467E-2,1.3570944E-3],"split_indices":[2,3,0,1,1,3,0,3,3,0,0,0,0,0,0,0,0],"split_type":[0,0,0,0,0,0,0,0,0,0,0,0,0,0,0,0,0],"sum_hessian":[1.9894291E3,1.9287521E3,6.067704E1,1.2199529E3,7.0879913E2,8.80143E2,3.398099E2,2.9892105E2,4.0987808E2,8.0894086E2,7.120214E1,2.9472476E2,4.508514E1,2.733316E2,2.5589457E1,2.3068819E2,1.7918991E2],"tree_param":{"num_deleted":"0","num_feature":"4","num_nodes":"17","size_leaf_vector":"1"}},{"base_weights":[-1.7943209E-2,-4.90987E-2,1.0443097E-1,-4.9815875E-1,-4.0165644E-2,-5.7875407E-1,1.6806185E-1,-1.2186675E-1,-6.810966E-3,-6.988224E-2,-4.3107208E-2,6.341115E-2,-1.9995762E-2,-5.3310804E-3,-7.805533E-2,-1.656247E-2,3.2072966E-3],"categories":[],"categories_nodes":[],"categories_segments":[],"categories_sizes":[],"default_left":[0,0,0,0,0,0,0,0,0,0,0,0,0,0,0,0,0],"id":25,"left_children":[1,3,-1,5,7,9,11,13,15,-1,-1,-1,-1,-1,-1,-1,-1],"loss_changes":[6.5432625E1,7.682947E0,0E0,2.1036034E0,5.1329107E0,2.9381466E-1,9.513452E-1,2.4617329E1,8.272745E0,0E0,0E0,0E0,0E0,0E0,0E0,0E0,0E0],"parents":[2147483647,0,0,1,1,3,3,4,4,5,5,6,6,7,7,8,8],"right_children":[2,4,-1,6,8,10,12,14,16,-1,-1,-1,-1,-1,-1,-1,-1],"split_conditions":[9.5E-1,4.411556E-4,1.0443097E-1,6.008505E-1,4.0036452E-1,3.8760632E-1,2.9363294E-4,3.9368165E-1,1.2437232E-3,-6.988224E-2,-4.3107208E-2,6.341115E-2,-1.9995762E-2,-5.3310804E-3,-7.805533E-2,-1.656247E-2,3.2072966E-3],"split_indices":[2,1,0,3,3,3,1,3,1,0,0,0,0,0,0,0,0],"split_type":[0,0,0,0,0,0,0,0,0,0,0,0,0,0,0,0,0],"sum_hessian":[1.9745652E3,1.9192286E3,5.53365E1,3.6365948E1,1.8828628E3,3.2558506E1,3.80744E0,5.450727E2,1.33779E3,1.5899754E1,1.6658752E1,1.3609425E0,2.4464977E0,4.9466864E2,5.0404064E1,2.6248056E2,1.0753094E3],"tree_param":{"num_deleted":"0","num_feature":"4","num_nodes":"17","size_leaf_vector":"1"}},{"base_weights":[-1.6240599E-2,-4.453197E-2,1.0363706E-1,-4.712578E-1,-3.6375385E-2,-5.5188006E-1,1.5869641E-1,3.1298462E-2,-7.4850805E-2,-7.1676485E-2,-4.299512E-2,5.791084E-2,-1.8805375E-2,1.6426636E-2,-2.0424731E-2,-2.0095063E-2,8.368263E-3],"categories":[],"categories_nodes":[],"categories_segments":[],"categories_sizes":[],"default_left":[0,0,0,0,0,0,0,0,0,0,0,0,0,0,0,0,0],"id":26,"left_children":[1,3,-1,5,7,9,11,13,15,-1,-1,-1,-1,-1,-1,-1,-1],"loss_changes":[5.852838E1,6.6426144E0,0E0,1.9059758E0,4.893739E0,3.3444595E-1,8.1431276E-1,2.1382015E1,2.3965118E1,0E0,0E0,0E0,0E0,0E0,0E0,0E0,0E0],"parents":[2147483647,0,0,1,1,3,3,4,4,5,5,6,6,7,7,8,8],"right_children":[2,4,-1,6,8,10,12,14,16,-1,-1,-1,-1,-1,-1,-1,-1],"split_conditions":[9.5E-1,4.411556E-4,1.0363706E-1,6.008505E-1,1.6496255E-3,2.644426E-4,2.9363294E-4,4.835966E-1,5.3341436E-1,-7.1676485E-2,-4.299512E-2,5.791084E-2,-1.8805375E-2,1.6426636E-2,-2.0424731E-2,-2.0095063E-2,8.368263E-3],"split_indices":[2,1,0,3,1,1,1,3,3,0,0,0,0,0,0,0,0],"split_type":[0,0,0,0,0,0,0,0,0,0,0,0,0,0,0,0,0],"sum_hessian":[1.9628209E3,1.9123789E3,5.0441936E1,3.480339E1,1.8775756E3,3.096446E1,3.8389304E0,6.806235E2,1.196952E3,1.1089519E1,1.9874943E1,1.4322805E0,2.4066498E0,4.3523288E2,2.4539058E2,6.6652264E2,5.3042944E2],"tree_param":{"num_deleted":"0","num_feature":"4","num_nodes":"17","size_leaf_vector":"1"}},{"base_weights":[-1.4681889E-2,-4.037266E-2,1.02892675E-1,-2.5767663E-1,-2.5584301E-2,-1.6151658E-1,-7.57103E-1,5.8895893E-2,-6.781206E-2,4.33983E-3,-4.374544E-2,-9.54946E-2,-3.2246202E-2,1.8300483E-2,-1.5983647E-2,-2.748554E-2,1.8955445E-3],"categories":[],"categories_nodes":[],"categories_segments":[],"categories_sizes":[],"default_left":[0,0,0,0,0,0,0,0,0,0,0,0,0,0,0,0,0],"id":27,"left_children":[1,3,-1,5,7,9,11,13,15,-1,-1,-1,-1,-1,-1,-1,-1],"loss_changes":[5.240581E1,6.1220665E0,0E0,5.7082586E0,6.3779287E0,5.8473053E0,1.3543062E0,1.6208378E1,2.1414068E1,0E0,0E0,0E0,0E0,0E0,0E0,0E0,0E0],"parents":[2147483647,0,0,1,1,3,3,4,4,5,5,6,6,7,7,8,8],"right_children":[2,4,-1,6,8,10,12,14,16,-1,-1,-1,-1,-1,-1,-1,-1],"split_conditions":[9.5E-1,7.1064656E-4,1.02892675E-1,6.606966E-4,1.6496255E-3,4.2648846E-1,6.9351215E-4,4.835966E-1,4.2466587E-1,4.33983E-3,-4.374544E-2,-9.54946E-2,-3.2246202E-2,1.8300483E-2,-1.5983647E-2,-2.748554E-2,1.8955445E-3],"split_indices":[2,1,0,1,1,3,1,3,3,0,0,0,0,0,0,0,0],"split_type":[0,0,0,0,0,0,0,0,0,0,0,0,0,0,0,0,0],"sum_hessian":[1.9520812E3,1.9061191E3,4.596209E1,1.2040675E2,1.7857124E3,1.0207629E2,1.8330467E1,5.9499E2,1.1907224E3,5.906018E1,4.3016106E1,1.1774002E1,6.5564656E0,3.7970718E2,2.1528284E2,3.5100107E2,8.397213E2],"tree_param":{"num_deleted":"0","num_feature":"4","num_nodes":"17","size_leaf_vector":"1"}},{"base_weights":[-1.3335337E-2,-3.666914E-2,1.0218879E-1,-3.806507E-1,-2.8190585E-2,-6.9370663E-1,-1.4281602E-1,-3.9537847E-2,1.4904746E-1,1.851238E-2,-7.750752E-2,8.0140404E-2,-2.1657703E-2,-3.3822234E-3,-9.910345E-2,6.376235E-2,3.8938017E-3],"categories":[],"categories_nodes":[],"categories_segments":[],"categories_sizes":[],"default_left":[0,0,0,0,0,0,0,0,0,0,0,0,0,0,0,0,0],"id":28,"left_children":[1,3,-1,5,7,9,11,13,15,-1,-1,-1,-1,-1,-1,-1,-1],"loss_changes":[4.6974747E1,5.534194E0,0E0,3.3002114E0,3.7398105E0,1.5344362E0,2.068222E0,9.460114E0,5.996204E0,0E0,0E0,0E0,0E0,0E0,0E0,0E0,0E0],"parents":[2147483647,0,0,1,1,3,3,4,4,5,5,6,6,7,7,8,8],"right_children":[2,4,-1,6,8,10,12,14,16,-1,-1,-1,-1,-1,-1,-1,-1],"split_conditions":[9.5E-1,5.041974E-4,1.0218879E-1,3.8153097E-1,1E0,2.3876064E-1,3.9003646E-1,1.5067144E-2,4.4046172E-1,1.851238E-2,-7.750752E-2,8.0140404E-2,-2.1657703E-2,-3.3822234E-3,-9.910345E-2,6.376235E-2,3.8938017E-3],"split_indices":[2,1,0,3,0,3,3,1,3,0,0,0,0,0,0,0,0],"split_type":[0,0,0,0,0,0,0,0,0,0,0,0,0,0,0,0,0],"sum_hessian":[1.9421146E3,1.9002478E3,4.186677E1,4.4655212E1,1.8555927E3,1.845137E1,2.6203844E1,1.7446709E3,1.1092167E2,1.4555374E0,1.6995832E1,1.1838914E0,2.5019953E1,1.7352827E3,9.388245E0,1.9519447E1,9.140222E1],"tree_param":{"num_deleted":"0","num_feature":"4","num_nodes":"17","size_leaf_vector":"1"}},{"base_weights":[-1.1977895E-2,-3.3182036E-2,1.0151725E-1,-1.1258809E-1,-6.515321E-4,-5.1520858E-2,-7.4299556E-1,-1.4595436E-1,3.6505952E-2,4.7631525E-3,-3.9078344E-2,-9.9902E-2,-5.1907223E-2,3.3378985E-2,-2.657421E-2,6.0100704E-2,1.7188129E-3],"categories":[],"categories_nodes":[],"categories_segments":[],"categories_sizes":[],"default_left":[0,0,0,0,0,0,0,0,0,0,0,0,0,0,0,0,0],"id":29,"left_children":[1,3,-1,5,7,9,11,13,15,-1,-1,-1,-1,-1,-1,-1,-1],"loss_changes":[4.2132042E1,4.8943634E0,0E0,2.1160076E1,7.2678127E0,1.6941923E1,2.2651157E0,1.5842382E1,1.1679756E1,0E0,0E0,0E0,0E0,0E0,0E0,0E0,0E0],"parents":[2147483647,0,0,1,1,3,3,4,4,5,5,6,6,7,7,8,8],"right_children":[2,4,-1,6,8,10,12,14,16,-1,-1,-1,-1,-1,-1,-1,-1],"split_conditions":[9.5E-1,4.0036452E-1,1.0151725E-1,3.9368165E-1,1.2437232E-3,2.7366513E-3,1.5317595E-3,4.2648846E-1,1.3191567E-3,4.7631525E-3,-3.9078344E-2,-9.9902E-2,-5.1907223E-2,3.3378985E-2,-2.657421E-2,6.0100704E-2,1.7188129E-3],"split_indices":[2,3,0,3,1,1,1,3,1,0,0,0,0,0,0,0,0],"split_type":[0,0,0,0,0,0,0,0,0,0,0,0,0,0,0,0,0],"sum_hessian":[1.9319048E3,1.893778E3,3.8126804E1,5.4964606E2,1.3441318E3,5.0209058E2,4.755552E1,2.7313208E2,1.0709998E3,3.8920242E2,1.1288813E2,2.0572433E1,2.6983086E1,5.421542E1,2.1891667E2,3.4441666E1,1.0365581E3],"tree_param":{"num_deleted":"0","num_feature":"4","num_nodes":"17","size_leaf_vector":"1"}},{"base_weights":[-1.0883527E-2,-3.0141458E-2,1.0087067E-1,-4.096256E-1,-2.3455666E-2,-4.9700227E-1,2.3336637E-1,-5.7749845E-2,3.3418756E-2,-6.743135E-2,-3.705371E-2,5.5210676E-2,-2.5392761E-2,3.2122217E-3,-2.9436842E-2,-1.6139375E-2,1.7937144E-2],"categories":[],"categories_nodes":[],"categories_segments":[],"categories_sizes":[],"default_left":[0,0,0,0,0,0,0,0,0,0,0,0,0,0,0,0,0],"id":30,"left_children":[1,3,-1,5,7,9,11,13,15,-1,-1,-1,-1,-1,-1,-1,-1],"loss_changes":[3.782864E1,4.786394E0,0E0,1.951261E0,3.6271427E0,4.0217543E-1,8.5287845E-1,2.4674309E1,1.9926214E1,0E0,0E0,0E0,0E0,0E0,0E0,0E0,0E0],"parents":[2147483647,0,0,1,1,3,3,4,4,5,5,6,6,7,7,8,8],"right_children":[2,4,-1,6,8,10,12,14,16,-1,-1,-1,-1,-1,-1,-1,-1],"split_conditions":[9.5E-1,4.411556E-4,1.0087067E-1,6.008505E-1,5.3341436E-1,2.644426E-4,7.223572E-1,2.824434E-3,2.3930331E-3,-6.743135E-2,-3.705371E-2,5.5210676E-2,-2.5392761E-2,3.2122217E-3,-2.9436842E-2,-1.6139375E-2,1.7937144E-2],"split_indices":[2,1,0,3,3,1,3,1,1,0,0,0,0,0,0,0,0],"split_type":[0,0,0,0,0,0,0,0,0,0,0,0,0,0,0,0,0],"sum_hessian":[1.9240243E3,1.8893097E3,3.4714676E1,3.1666348E1,1.8576433E3,2.8077871E1,3.5884762E0,1.1588585E3,6.987847E2,9.88564E0,1.819223E1,2.0890303E0,1.499446E0,8.404895E2,3.1836905E2,2.9925027E2,3.995345E2],"tree_param":{"num_deleted":"0","num_feature":"4","num_nodes":"17","size_leaf_vector":"1"}},{"base_weights":[-9.847235E-3,-2.734254E-2,1.00242235E-1,-2.9079184E-1,-1.8832797E-2,-7.055663E-1,-1.2607946E-1,5.5856186E-1,-2.3330446E-2,-8.560972E-3,-7.8872405E-2,1.11679874E-1,-2.0605428E-2,1.726001E-1,-2.5707869E-2,-3.4218814E-2,-1.5316643E-3],"categories":[],"categories_nodes":[],"categories_segments":[],"categories_sizes":[],"default_left":[0,0,0,0,0,0,0,0,0,0,0,0,0,0,0,0,0],"id":31,"left_children":[1,3,-1,5,7,9,11,13,15,-1,-1,-1,-1,-1,-1,-1,-1],"loss_changes":[3.398631E1,4.222492E0,0E0,3.9378376E0,4.7600875E0,7.8497124E-1,4.544597E0,1.3935604E1,4.6320195E0,0E0,0E0,0E0,0E0,0E0,0E0,0E0,0E0],"parents":[2147483647,0,0,1,1,3,3,4,4,5,5,6,6,7,7,8,8],"right_children":[2,4,-1,6,8,10,12,14,16,-1,-1,-1,-1,-1,-1,-1,-1],"split_conditions":[9.5E-1,5.6351663E-4,1.00242235E-1,3.2989064E-1,5.9173256E-4,2.3876064E-1,3.329283E-1,3.311057E-1,7.1064656E-4,-8.560972E-3,-7.8872405E-2,1.11679874E-1,-2.0605428E-2,1.726001E-1,-2.5707869E-2,-3.4218814E-2,-1.5316643E-3],"split_indices":[2,1,0,3,1,3,3,3,1,0,0,0,0,0,0,0,0],"split_type":[0,0,0,0,0,0,0,0,0,0,0,0,0,0,0,0,0],"sum_hessian":[1.9165024E3,1.8848983E3,3.1604172E1,5.794151E1,1.8269568E3,1.5535868E1,4.2405643E1,1.3169014E1,1.8137877E3,2.0774648E0,1.3458403E1,1.7799101E0,4.0625732E1,4.9573507E0,8.211663E0,4.344571E1,1.770342E3],"tree_param":{"num_deleted":"0","num_feature":"4","num_nodes":"17","size_leaf_vector":"1"}},{"base_weights":[-8.774318E-3,-2.4667254E-2,9.9625625E-2,-9.5612265E-2,4.1188006E-3,-3.9237987E-2,-7.0513004E-1,-1.21078834E-1,3.5460584E-2,2.1416133E-2,-1.5375092E-2,-9.684296E-2,-4.8031367E-2,3.0476188E-2,-2.3234619E-2,5.2889366E-2,1.7973598E-3],"categories":[],"categories_nodes":[],"categories_segments":[],"categories_sizes":[],"default_left":[0,0,0,0,0,0,0,0,0,0,0,0,0,0,0,0,0],"id":32,"left_children":[1,3,-1,5,7,9,11,13,15,-1,-1,-1,-1,-1,-1,-1,-1],"loss_changes":[3.0546116E1,3.8439953E0,0E0,1.8639845E1,5.2615175E0,1.4493494E1,2.2539024E0,1.279172E1,9.243134E0,0E0,0E0,0E0,0E0,0E0,0E0,0E0,0E0],"parents":[2147483647,0,0,1,1,3,3,4,4,5,5,6,6,7,7,8,8],"right_children":[2,4,-1,6,8,10,12,14,16,-1,-1,-1,-1,-1,-1,-1,-1],"split_conditions":[9.5E-1,4.0036452E-1,9.9625625E-2,3.9368165E-1,1.2437232E-3,1.093162E-3,1.5317595E-3,4.2648846E-1,1.3191567E-3,2.1416133E-2,-1.5375092E-2,-9.684296E-2,-4.8031367E-2,3.0476188E-2,-2.3234619E-2,5.2889366E-2,1.7973598E-3],"split_indices":[2,3,0,3,1,1,1,3,1,0,0,0,0,0,0,0,0],"split_type":[0,0,0,0,0,0,0,0,0,0,0,0,0,0,0,0,0],"sum_hessian":[1.9098345E3,1.881064E3,2.8770533E1,5.422742E2,1.3387898E3,4.9733963E2,4.4934547E1,2.6747464E2,1.0713152E3,1.5452643E2,3.428132E2,1.9172518E1,2.576203E1,5.5049812E1,2.1242482E2,3.5666378E1,1.0356488E3],"tree_param":{"num_deleted":"0","num_feature":"4","num_nodes":"17","size_leaf_vector":"1"}},{"base_weights":[-7.961806E-3,-2.2405645E-2,9.901505E-2,-3.6921817E-1,-1.660502E-2,-4.5881316E-1,2.5374717E-1,4.104107E-2,-4.977356E-2,-6.050987E-2,-2.8974447E-2,5.4095328E-2,-2.210676E-2,1.3469561E-2,-1.3707175E-2,-2.1924086E-2,1.7786004E-3],"categories":[],"categories_nodes":[],"categories_segments":[],"categories_sizes":[],"default_left":[0,0,0,0,0,0,0,0,0,0,0,0,0,0,0,0,0],"id":33,"left_children":[1,3,-1,5,7,9,11,13,15,-1,-1,-1,-1,-1,-1,-1,-1],"loss_changes":[2.7480282E1,3.772761E0,0E0,1.8385153E0,3.5365863E0,5.006213E-1,7.364352E-1,1.1290026E1,1.3443651E1,0E0,0E0,0E0,0E0,0E0,0E0,0E0,0E0],"parents":[2147483647,0,0,1,1,3,3,4,4,5,5,6,6,7,7,8,8],"right_children":[2,4,-1,6,8,10,12,14,16,-1,-1,-1,-1,-1,-1,-1,-1],"split_conditions":[9.5E-1,4.411556E-4,9.901505E-2,6.008505E-1,1.6496255E-3,3.8760632E-1,7.223572E-1,4.835966E-1,4.2466587E-1,-6.050987E-2,-2.8974447E-2,5.4095328E-2,-2.210676E-2,1.3469561E-2,-1.3707175E-2,-2.1924086E-2,1.7786004E-3],"split_indices":[2,1,0,3,1,3,3,3,3,0,0,0,0,0,0,0,0],"split_type":[0,0,0,0,0,0,0,0,0,0,0,0,0,0,0,0,0],"sum_hessian":[1.9036204E3,1.8774293E3,2.6191023E1,2.9853813E1,1.8475754E3,2.6330462E1,3.523351E0,6.7470966E2,1.1728658E3,1.2733701E1,1.3596762E1,2.1086044E0,1.4147465E0,4.4235577E2,2.323539E2,3.3366098E2,8.3920483E2],"tree_param":{"num_deleted":"0","num_feature":"4","num_nodes":"17","size_leaf_vector":"1"}},{"base_weights":[-7.1819928E-3,-2.0312814E-2,9.8404996E-2,-1.9192444E-1,-9.300326E-3,-9.507944E-2,-7.099866E-1,6.102533E-2,-4.5025676E-2,1.3588172E-1,-1.2474616E-2,-9.23346E-2,-2.6645277E-2,1.4105648E-2,-1.3152251E-2,-1.3650628E-2,6.3022384E-3],"categories":[],"categories_nodes":[],"categories_segments":[],"categories_sizes":[],"default_left":[0,0,0,0,0,0,0,0,0,0,0,0,0,0,0,0,0],"id":34,"left_children":[1,3,-1,5,7,9,11,13,15,-1,-1,-1,-1,-1,-1,-1,-1],"loss_changes":[2.4733576E1,3.541552E0,0E0,5.6023383E0,4.431875E0,4.3259563E0,1.4236345E0,9.176491E0,1.1569369E1,0E0,0E0,0E0,0E0,0E0,0E0,0E0,0E0],"parents":[2147483647,0,0,1,1,3,3,4,4,5,5,6,6,7,7,8,8],"right_children":[2,4,-1,6,8,10,12,14,16,-1,-1,-1,-1,-1,-1,-1,-1],"split_conditions":[9.5E-1,7.1064656E-4,9.8404996E-2,6.606966E-4,1.6496255E-3,2.2600242E-1,6.9351215E-4,4.927096E-1,5.3341436E-1,1.3588172E-1,-1.2474616E-2,-9.23346E-2,-2.6645277E-2,1.4105648E-2,-1.3152251E-2,-1.3650628E-2,6.3022384E-3],"split_indices":[2,1,0,1,1,3,1,3,3,0,0,0,0,0,0,0,0],"split_type":[0,0,0,0,0,0,0,0,0,0,0,0,0,0,0,0,0],"sum_hessian":[1.8977537E3,1.8739095E3,2.3844116E1,1.1200872E2,1.7619008E3,9.5365005E1,1.664372E1,5.932921E2,1.1686086E3,1.0110904E0,9.435391E1,1.0507403E1,6.1363173E0,4.192862E2,1.7400592E2,6.326782E2,5.359304E2],"tree_param":{"num_deleted":"0","num_feature":"4","num_nodes":"17","size_leaf_vector":"1"}},{"base_weights":[-6.4452672E-3,-1.8386358E-2,9.7790286E-2,-1.5447184E-1,-4.3976186E-3,7.253264E-2,-3.8041896E-1,1.8576914E0,-1.2854686E-2,-2.2096564E-3,2.5275278E-1,-4.08716E-2,7.214435E-2,-2.858083E-2,2.964603E-1,3.8965844E-2,-3.0077666E-3],"categories":[],"categories_nodes":[],"categories_segments":[],"categories_sizes":[],"default_left":[0,0,0,0,0,0,0,0,0,0,0,0,0,0,0,0,0],"id":35,"left_children":[1,3,-1,5,7,9,11,13,15,-1,-1,-1,-1,-1,-1,-1,-1],"loss_changes":[2.2271303E1,3.562057E0,0E0,8.9737E0,2.6765182E1,2.0463633E1,3.025341E0,1.9079487E1,1.17373905E1,0E0,0E0,0E0,0E0,0E0,0E0,0E0,0E0],"parents":[2147483647,0,0,1,1,3,3,4,4,5,5,6,6,7,7,8,8],"right_children":[2,4,-1,6,8,10,12,14,16,-1,-1,-1,-1,-1,-1,-1,-1],"split_conditions":[9.5E-1,3.1409478E-1,9.7790286E-2,1.4736551E-3,3.1530985E-1,1.4462832E-3,1.2028099E-2,1.8625387E-3,3.2867557E-1,-2.2096564E-3,2.5275278E-1,-4.08716E-2,7.214435E-2,-2.858083E-2,2.964603E-1,3.8965844E-2,-3.0077666E-3],"split_indices":[2,3,0,1,3,1,1,1,3,0,0,0,0,0,0,0,0],"split_type":[0,0,0,0,0,0,0,0,0,0,0,0,0,0,0,0,0],"sum_hessian":[1.8922249E3,1.870515E3,2.1709827E1,1.7341861E2,1.6970964E3,8.684559E1,8.657301E1,6.684264E0,1.6904121E3,8.457654E1,2.269052E0,8.501871E1,1.554304E0,2.5289083E0,4.155356E0,6.847517E1,1.621937E3],"tree_param":{"num_deleted":"0","num_feature":"4","num_nodes":"17","size_leaf_vector":"1"}},{"base_weights":[-5.555203E-3,-1.6412724E-2,9.716607E-2,-7.444799E-2,1.4647902E-2,-7.904571E-3,-3.1604984E-1,3.210089E-1,-1.5136572E-2,-2.4149094E-3,1.5861553E-1,-4.311937E-2,5.8076214E-2,5.8338493E-2,1.3636871E-2,-1.1238853E-2,6.8734563E-3],"categories":[],"categories_nodes":[],"categories_segments":[],"categories_sizes":[],"default_left":[0,0,0,0,0,0,0,0,0,0,0,0,0,0,0,0,0],"id":36,"left_children":[1,3,-1,5,7,9,11,13,15,-1,-1,-1,-1,-1,-1,-1,-1],"loss_changes":[2.0054457E1,3.3698983E0,0E0,1.0474615E1,1.1120379E1,1.3295861E1,1.477986E1,5.151637E0,9.071244E0,0E0,0E0,0E0,0E0,0E0,0E0,0E0,0E0],"parents":[2147483647,0,0,1,1,3,3,4,4,5,5,6,6,7,7,8,8],"right_children":[2,4,-1,6,8,10,12,14,16,-1,-1,-1,-1,-1,-1,-1,-1],"split_conditions":[9.5E-1,4.198056E-1,9.716607E-2,2.7366513E-3,4.5078978E-1,2.6806465E-3,1E0,1.4262168E-3,2.3331805E-3,-2.4149094E-3,1.5861553E-1,-4.311937E-2,5.8076214E-2,5.8338493E-2,1.3636871E-2,-1.1238853E-2,6.8734563E-3],"split_indices":[2,3,0,1,3,1,0,1,1,0,0,0,0,0,0,0,0],"split_type":[0,0,0,0,0,0,0,0,0,0,0,0,0,0,0,0,0],"sum_hessian":[1.8876184E3,1.8678485E3,1.9769838E1,6.5068274E2,1.2171658E3,5.1097867E2,1.3970406E2,1.0698172E2,1.1101841E3,5.067989E2,4.1797647E0,1.24268166E2,1.5435899E1,4.3296814E1,6.3684902E1,5.139261E2,5.96258E2],"tree_param":{"num_deleted":"0","num_feature":"4","num_nodes":"17","size_leaf_vector":"1"}},{"base_weights":[-4.9022236E-3,-1.4788604E-2,9.6527755E-2,-5.72946E-1,-1.1576151E-2,-8.287322E-2,-2.9802164E-1,1.55540565E-2,-6.668883E-2,3.2368448E-2,-4.9623474E-2,-2.8142077E-3,2.3754789E-2,-2.1746872E-2,9.308028E-3],"categories":[],"categories_nodes":[],"categories_segments":[],"categories_sizes":[],"default_left":[0,0,0,0,0,0,0,0,0,0,0,0,0,0,0],"id":37,"left_children":[1,3,-1,5,7,-1,9,11,13,-1,-1,-1,-1,-1,-1],"loss_changes":[1.8072763E1,3.3369472E0,0E0,5.019758E-1,2.7748E0,0E0,9.856155E-1,1.2073286E1,1.4766775E1,0E0,0E0,0E0,0E0,0E0,0E0],"parents":[2147483647,0,0,1,1,3,3,4,4,6,6,7,7,8,8],"right_children":[2,4,-1,6,8,-1,10,12,14,-1,-1,-1,-1,-1,-1],"split_conditions":[9.5E-1,2.644426E-4,9.6527755E-2,3.8760632E-1,3.0195555E-3,-8.287322E-2,4.0643984E-1,2.3331805E-3,5.4678005E-1,3.2368448E-2,-4.9623474E-2,-2.8142077E-3,2.3754789E-2,-2.1746872E-2,9.308028E-3],"split_indices":[2,1,0,3,1,0,3,1,3,0,0,0,0,0,0],"split_type":[0,0,0,0,0,0,0,0,0,0,0,0,0,0,0],"sum_hessian":[1.8817466E3,1.8637394E3,1.8007227E1,9.650399E0,1.854089E3,3.9556813E0,5.6947174E0,1.2429448E3,6.1114417E2,1.2236525E0,4.471065E0,1.0392561E3,2.0368864E2,3.1423145E2,2.9691272E2],"tree_param":{"num_deleted":"0","num_feature":"4","num_nodes":"15","size_leaf_vector":"1"}},{"base_weights":[-4.4362885E-3,-1.3433211E-2,9.587092E-2,-2.4075364E-1,-6.4414735E-3,-6.7152685E-1,-7.615869E-2,4.9071565E-1,-1.049788E-2,-2.9366001E-2,-8.5358106E-2,1.0379445E-1,-1.55503405E-2,1.3791396E-1,-2.2841772E-2,-2.9435754E-2,-3.6656033E-4],"categories":[],"categories_nodes":[],"categories_segments":[],"categories_sizes":[],"default_left":[0,0,0,0,0,0,0,0,0,0,0,0,0,0,0,0,0],"id":38,"left_children":[1,3,-1,5,7,9,11,13,15,-1,-1,-1,-1,-1,-1,-1,-1],"loss_changes":[1.629759E1,2.9592535E0,0E0,3.8882277E0,3.6519508E0,7.9718924E-1,3.8147066E0,9.678691E0,3.4795175E0,0E0,0E0,0E0,0E0,0E0,0E0,0E0,0E0],"parents":[2147483647,0,0,1,1,3,3,4,4,5,5,6,6,7,7,8,8],"right_children":[2,4,-1,6,8,10,12,14,16,-1,-1,-1,-1,-1,-1,-1,-1],"split_conditions":[9.5E-1,5.6351663E-4,9.587092E-2,3.2989064E-1,5.9173256E-4,2.5394896E-1,3.329283E-1,3.311057E-1,7.1064656E-4,-2.9366001E-2,-8.5358106E-2,1.0379445E-1,-1.55503405E-2,1.3791396E-1,-2.2841772E-2,-2.9435754E-2,-3.6656033E-4],"split_indices":[2,1,0,3,1,3,3,3,1,0,0,0,0,0,0,0,0],"split_type":[0,0,0,0,0,0,0,0,0,0,0,0,0,0,0,0,0],"sum_hessian":[1.8782917E3,1.8618856E3,1.640617E1,5.455992E1,1.8073257E3,1.4232127E1,4.0327793E1,1.3656034E1,1.7936697E3,5.4770813E0,8.755046E0,1.8779182E0,3.8449875E1,5.6984E0,7.9576344E0,4.1168404E1,1.7525012E3],"tree_param":{"num_deleted":"0","num_feature":"4","num_nodes":"17","size_leaf_vector":"1"}},{"base_weights":[-3.930895E-3,-1.2122973E-2,9.519147E-2,-2.6948428E-2,8.938281E-2,1.119636E-2,-1.55019E-1,6.6353476E-1,-1.9180812E-2,-2.8497332E-3,2.1065883E-2,-3.2761976E-2,7.1324036E-3,-4.7028944E-2,1.0501827E-1,-2.3472695E-2,1.8163057E-2],"categories":[],"categories_nodes":[],"categories_segments":[],"categories_sizes":[],"default_left":[0,0,0,0,0,0,0,0,0,0,0,0,0,0,0,0,0],"id":39,"left_children":[1,3,-1,5,7,9,11,13,15,-1,-1,-1,-1,-1,-1,-1,-1],"loss_changes":[1.4699636E1,2.8027227E0,0E0,7.9375668E0,1.4809085E1,9.923274E0,1.4590037E1,1.7054358E1,8.725606E0,0E0,0E0,0E0,0E0,0E0,0E0,0E0,0E0],"parents":[2147483647,0,0,1,1,3,3,4,4,5,5,6,6,7,7,8,8],"right_children":[2,4,-1,6,8,10,12,14,16,-1,-1,-1,-1,-1,-1,-1,-1],"split_conditions":[9.5E-1,6.683002E-3,9.519147E-2,3.0195555E-3,7.468469E-3,2.3331805E-3,5.583232E-1,4.6962333E-1,1E0,-2.8497332E-3,2.1065883E-2,-3.2761976E-2,7.1324036E-3,-4.7028944E-2,1.0501827E-1,-2.3472695E-2,1.8163057E-2],"split_indices":[2,1,0,1,1,1,3,3,0,0,0,0,0,0,0,0,0],"split_type":[0,0,0,0,0,0,0,0,0,0,0,0,0,0,0,0,0],"sum_hessian":[1.8747877E3,1.8598353E3,1.4952408E1,1.6234556E3,2.3637973E2,1.2515917E3,3.7186392E2,3.677559E1,1.9960414E2,1.044575E3,2.0701674E2,2.1072525E2,1.6113867E2,9.296824E0,2.7478765E1,9.618865E1,1.0341549E2],"tree_param":{"num_deleted":"0","num_feature":"4","num_nodes":"17","size_leaf_vector":"1"}},{"base_weights":[-3.5701583E-3,-1.1040248E-2,9.4485484E-2,4.7317357E-3,-1.1403195E-1,-2.3035748E-2,3.7179706E-1,-3.2691926E-1,1.3880847E-1,-4.5788157E-4,-4.918901E-2,3.118948E-3,6.972416E-2,-8.907578E-2,-1.8108187E-2,-7.3802616E-3,4.4188883E-2],"categories":[],"categories_nodes":[],"categories_segments":[],"categories_sizes":[],"default_left":[0,0,0,0,0,0,0,0,0,0,0,0,0,0,0,0,0],"id":40,"left_children":[1,3,-1,5,7,9,11,13,15,-1,-1,-1,-1,-1,-1,-1,-1],"loss_changes":[1.326583E1,3.0175478E0,0E0,1.6435074E1,1.3324124E1,1.2971506E1,1.2548489E1,1.0876035E1,7.3442917E0,0E0,0E0,0E0,0E0,0E0,0E0,0E0,0E0],"parents":[2147483647,0,0,1,1,3,3,4,4,5,5,6,6,7,7,8,8],"right_children":[2,4,-1,6,8,10,12,14,16,-1,-1,-1,-1,-1,-1,-1,-1],"split_conditions":[9.5E-1,6.688943E-1,9.4485484E-2,6.2697446E-1,3.966821E-3,6.1117864E-1,2.452799E-3,6.974484E-1,7.7217495E-1,-4.5788157E-4,-4.918901E-2,3.118948E-3,6.972416E-2,-8.907578E-2,-1.8108187E-2,-7.3802616E-3,4.4188883E-2],"split_indices":[2,3,0,3,1,3,1,3,3,0,0,0,0,0,0,0,0],"split_type":[0,0,0,0,0,0,0,0,0,0,0,0,0,0,0,0,0],"sum_hessian":[1.8699579E3,1.8563252E3,1.3632634E1,1.61063E3,2.4569522E2,1.4982302E3,1.1239976E2,1.332272E2,1.1246802E2,1.4424562E3,5.5774006E1,5.5455894E1,5.694386E1,2.6328339E1,1.0689887E2,6.654391E1,4.592411E1],"tree_param":{"num_deleted":"0","num_feature":"4","num_nodes":"17","size_leaf_vector":"1"}},{"base_weights":[-3.280064E-3,-1.0091137E-2,9.374938E-2,-3.5288031E-3,-2.5664145E-1,-1.5327872E-2,4.229687E-1,-6.623158E-1,2.3553066E-2,8.831178E-5,-4.2945527E-2,3.6020544E-3,1.352958E-1,-3.7118778E-2,-9.426333E-2,6.6199E-2,-1.9066794E-2],"categories":[],"categories_nodes":[],"categories_segments":[],"categories_sizes":[],"default_left":[0,0,0,0,0,0,0,0,0,0,0,0,0,0,0,0,0],"id":41,"left_children":[1,3,-1,5,7,9,11,13,15,-1,-1,-1,-1,-1,-1,-1,-1],"loss_changes":[1.1976641E1,3.000701E0,0E0,9.105394E0,5.4812984E0,1.1818686E1,1.7479877E1,1.25601E0,4.14807E0,0E0,0E0,0E0,0E0,0E0,0E0,0E0,0E0],"parents":[2147483647,0,0,1,1,3,3,4,4,5,5,6,6,7,7,8,8],"right_children":[2,4,-1,6,8,10,12,14,16,-1,-1,-1,-1,-1,-1,-1,-1],"split_conditions":[9.5E-1,8.3718103E-1,9.374938E-2,7.7217495E-1,3.6143025E-3,7.223572E-1,7.125434E-3,8.639125E-1,4.2376635E-3,8.831178E-5,-4.2945527E-2,3.6020544E-3,1.352958E-1,-3.7118778E-2,-9.426333E-2,6.6199E-2,-1.9066794E-2],"split_indices":[2,3,0,3,1,3,1,3,1,0,0,0,0,0,0,0,0],"split_type":[0,0,0,0,0,0,0,0,0,0,0,0,0,0,0,0,0],"sum_hessian":[1.8666312E3,1.8541964E3,1.2434852E1,1.8071116E3,4.7084873E1,1.7594017E3,4.7709854E1,1.8678207E1,2.8406664E1,1.6940847E3,6.531697E1,3.442507E1,1.3284784E1,1.0302527E1,8.375681E0,6.611719E0,2.1794945E1],"tree_param":{"num_deleted":"0","num_feature":"4","num_nodes":"17","size_leaf_vector":"1"}},{"base_weights":[-2.9340028E-3,-9.145895E-3,9.2979714E-2,-5.3590786E-1,-6.302342E-3,-8.0572955E-2,-2.61847E-1,4.2212624E-2,-3.523799E-2,3.1400073E-2,-4.604217E-2,1.682426E-4,3.362038E-2,-5.305773E-2,-2.0446074E-3],"categories":[],"categories_nodes":[],"categories_segments":[],"categories_sizes":[],"default_left":[0,0,0,0,0,0,0,0,0,0,0,0,0,0,0],"id":42,"left_children":[1,3,-1,5,7,-1,9,11,13,-1,-1,-1,-1,-1,-1],"loss_changes":[1.0814002E1,2.77307E0,0E0,5.2408886E-1,2.591029E0,0E0,8.77879E-1,8.216598E0,8.459415E0,0E0,0E0,0E0,0E0,0E0,0E0],"parents":[2147483647,0,0,1,1,3,3,4,4,6,6,7,7,8,8],"right_children":[2,4,-1,6,8,-1,10,12,14,-1,-1,-1,-1,-1,-1],"split_conditions":[9.5E-1,2.644426E-4,9.2979714E-2,3.8760632E-1,1.6496255E-3,-8.0572955E-2,4.0643984E-1,1.5163303E-3,2.5394896E-1,3.1400073E-2,-4.604217E-2,1.682426E-4,3.362038E-2,-5.305773E-2,-2.0446074E-3],"split_indices":[2,1,0,3,1,0,3,1,3,0,0,0,0,0,0],"split_type":[0,0,0,0,0,0,0,0,0,0,0,0,0,0,0],"sum_hessian":[1.8639381E3,1.8525902E3,1.1347863E1,8.940379E0,1.8436499E3,3.527489E0,5.41289E0,6.886185E2,1.1550314E3,1.2389064E0,4.1739836E0,6.0607025E2,8.254831E1,3.248055E1,1.1225508E3],"tree_param":{"num_deleted":"0","num_feature":"4","num_nodes":"15","size_leaf_vector":"1"}},{"base_weights":[-2.6758285E-3,-8.344339E-3,9.2173494E-2,2.9795253E-1,-1.2902085E-2,6.975501E-1,-3.7013832E-1,-5.418962E-1,-2.9734229E-3,1.4420621E-2,2.0560923E-1,-6.753659E-2,8.2757875E-2,-1.1923579E-2,-7.043206E-2,1.6065423E-1,-7.543995E-4],"categories":[],"categories_nodes":[],"categories_segments":[],"categories_sizes":[],"default_left":[0,0,0,0,0,0,0,0,0,0,0,0,0,0,0,0,0],"id":43,"left_children":[1,3,-1,5,7,9,11,13,15,-1,-1,-1,-1,-1,-1,-1,-1],"loss_changes":[9.768447E0,2.589791E0,0E0,7.519939E0,9.589783E0,1.2759163E1,4.5194407E0,2.225298E0,1.320604E1,0E0,0E0,0E0,0E0,0E0,0E0,0E0,0E0],"parents":[2147483647,0,0,1,1,3,3,4,4,5,5,6,6,7,7,8,8],"right_children":[2,4,-1,6,8,10,12,14,16,-1,-1,-1,-1,-1,-1,-1,-1],"split_conditions":[9.5E-1,2.3511544E-1,9.2173494E-2,1.5731396E-3,2.490887E-1,1.3350594E-3,5.0019776E-3,9.529917E-4,2.509113E-1,1.4420621E-2,2.0560923E-1,-6.753659E-2,8.2757875E-2,-1.1923579E-2,-7.043206E-2,1.6065423E-1,-7.543995E-4],"split_indices":[2,3,0,1,3,1,1,1,3,0,0,0,0,0,0,0,0],"split_type":[0,0,0,0,0,0,0,0,0,0,0,0,0,0,0,0,0],"sum_hessian":[1.8617281E3,1.8513666E3,1.0361653E1,2.6200876E1,1.8251656E3,1.6367235E1,9.833642E0,3.263823E1,1.7925275E3,1.24161825E1,3.9510517E0,8.184114E0,1.649527E0,9.542044E0,2.3096184E1,4.0833654E0,1.7884441E3],"tree_param":{"num_deleted":"0","num_feature":"4","num_nodes":"17","size_leaf_vector":"1"}},{"base_weights":[-2.2531343E-3,-7.428859E-3,9.132793E-2,-1.4504193E-3,-2.3523417E-1,-1.2148935E-2,3.7964016E-1,-8.493318E-1,-5.95581E-2,-4.5439592E-4,-7.6683946E-2,3.3558782E-3,1.1821556E-1,-9.858194E-2,-4.2540636E-2,1.4453293E-1,-1.5466158E-2],"categories":[],"categories_nodes":[],"categories_segments":[],"categories_sizes":[],"default_left":[0,0,0,0,0,0,0,0,0,0,0,0,0,0,0,0,0],"id":44,"left_children":[1,3,-1,5,7,9,11,13,15,-1,-1,-1,-1,-1,-1,-1,-1],"loss_changes":[8.822945E0,2.5206468E0,0E0,7.362659E0,5.055474E0,1.0077271E1,1.3656112E1,1.8541813E-1,5.6445417E0,0E0,0E0,0E0,0E0,0E0,0E0,0E0,0E0],"parents":[2147483647,0,0,1,1,3,3,4,4,5,5,6,6,7,7,8,8],"right_children":[2,4,-1,6,8,10,12,14,16,-1,-1,-1,-1,-1,-1,-1,-1],"split_conditions":[9.5E-1,8.3718103E-1,9.132793E-2,7.7217495E-1,2.3930331E-3,7.6609963E-1,7.125434E-3,1.5731396E-3,2.452799E-3,-4.5439592E-4,-7.6683946E-2,3.3558782E-3,1.1821556E-1,-9.858194E-2,-4.2540636E-2,1.4453293E-1,-1.5466158E-2],"split_indices":[2,3,0,3,1,3,1,1,1,0,0,0,0,0,0,0,0],"split_type":[0,0,0,0,0,0,0,0,0,0,0,0,0,0,0,0,0],"sum_hessian":[1.8595209E3,1.850054E3,9.466914E0,1.8037241E3,4.632991E1,1.7554117E3,4.8312294E1,9.452582E0,3.687733E1,1.738895E3,1.6516733E1,3.4483326E1,1.3828969E1,6.147781E0,3.3048015E0,1.3480928E0,3.5529236E1],"tree_param":{"num_deleted":"0","num_feature":"4","num_nodes":"17","size_leaf_vector":"1"}},{"base_weights":[-1.9935372E-3,-6.7239436E-3,9.0440534E-2,-2.1847503E-3,-3.1287438E-1,-1.3066604E-2,3.061006E-1,5.035463E-1,-4.7706068E-1,-3.3339372E-4,-2.3178384E-2,-9.418865E-2,4.6766903E-2,-1.4279829E-2,1.084757E-1,-1.8591361E-2,-7.442412E-2],"categories":[],"categories_nodes":[],"categories_segments":[],"categories_sizes":[],"default_left":[0,0,0,0,0,0,0,0,0,0,0,0,0,0,0,0,0],"id":45,"left_children":[1,3,-1,5,7,9,11,13,15,-1,-1,-1,-1,-1,-1,-1,-1],"loss_changes":[7.9736423E0,2.5696747E0,0E0,6.1216393E0,3.8615673E0,3.7508056E0,1.298533E1,2.0369148E0,1.6512461E0,0E0,0E0,0E0,0E0,0E0,0E0,0E0,0E0],"parents":[2147483647,0,0,1,1,3,3,4,4,5,5,6,6,7,7,8,8],"right_children":[2,4,-1,6,8,10,12,14,16,-1,-1,-1,-1,-1,-1,-1,-1],"split_conditions":[9.5E-1,7.980754E-2,9.0440534E-2,1.757973E-2,4.4046172E-1,8.604907E-3,1E0,4.0643984E-1,5.6986636E-1,-3.3339372E-4,-2.3178384E-2,-9.418865E-2,4.6766903E-2,-1.4279829E-2,1.084757E-1,-1.8591361E-2,-7.442412E-2],"split_indices":[2,1,0,1,3,1,0,3,3,0,0,0,0,0,0,0,0],"split_type":[0,0,0,0,0,0,0,0,0,0,0,0,0,0,0,0,0],"sum_hessian":[1.8572648E3,1.8486096E3,8.65513E0,1.8225938E3,2.6015873E1,1.7613783E3,6.1215496E1,4.0098534E0,2.200602E1,1.6873102E3,7.406813E1,6.4631515E0,5.4752346E1,2.2556884E0,1.7541652E0,1.1342217E1,1.0663802E1],"tree_param":{"num_deleted":"0","num_feature":"4","num_nodes":"17","size_leaf_vector":"1"}},{"base_weights":[-1.785876E-3,-6.1156163E-3,8.9509495E-2,-5.130156E-1,-3.4821855E-3,-7.900932E-2,-2.4225847E-1,8.820122E-2,-1.977878E-2,2.9279405E-2,-4.372784E-2,4.157908E-2,-8.771219E-3,-3.083967E-2,1.0033341E-3],"categories":[],"categories_nodes":[],"categories_segments":[],"categories_sizes":[],"default_left":[0,0,0,0,0,0,0,0,0,0,0,0,0,0,0],"id":46,"left_children":[1,3,-1,5,7,-1,9,11,13,-1,-1,-1,-1,-1,-1],"loss_changes":[7.208847E0,2.4638302E0,0E0,5.2424335E-1,2.748731E0,0E0,7.819601E-1,1.6037134E1,1.3441868E1,0E0,0E0,0E0,0E0,0E0,0E0],"parents":[2147483647,0,0,1,1,3,3,4,4,6,6,7,7,8,8],"right_children":[2,4,-1,6,8,-1,10,12,14,-1,-1,-1,-1,-1,-1],"split_conditions":[9.5E-1,2.644426E-4,8.9509495E-2,3.8760632E-1,3.329283E-1,-7.900932E-2,4.0643984E-1,1.093162E-3,3.8760632E-1,2.9279405E-2,-4.372784E-2,4.157908E-2,-8.771219E-3,-3.083967E-2,1.0033341E-3],"split_indices":[2,1,0,3,3,0,3,1,3,0,0,0,0,0,0],"split_type":[0,0,0,0,0,0,0,0,0,0,0,0,0,0,0],"sum_hessian":[1.8539805E3,1.8460616E3,7.9187803E0,8.539368E0,1.8375222E3,3.272445E0,5.2669225E0,2.7665726E2,1.560865E3,1.272998E0,3.9939244E0,9.618185E1,1.8047542E2,1.4525674E2,1.4156083E3],"tree_param":{"num_deleted":"0","num_feature":"4","num_nodes":"15","size_leaf_vector":"1"}},{"base_weights":[-1.6580812E-3,-5.621586E-3,8.853335E-2,-1.3044377E-1,4.8506837E-3,-7.1686017E-3,-3.0308586E-1,5.141912E-1,-3.3935916E-3,-1.3811002E-2,1.5304635E-1,-5.852238E-2,-7.6740305E-3,2.0109601E-1,-4.551304E-3,-2.0134566E-2,1.425254E-3],"categories":[],"categories_nodes":[],"categories_segments":[],"categories_sizes":[],"default_left":[0,0,0,0,0,0,0,0,0,0,0,0,0,0,0,0,0],"id":47,"left_children":[1,3,-1,5,7,9,11,13,15,-1,-1,-1,-1,-1,-1,-1,-1],"loss_changes":[6.5204215E0,2.4137325E0,0E0,3.039656E0,7.157591E0,1.7206339E1,3.7558856E0,2.2836708E1,5.864167E0,0E0,0E0,0E0,0E0,0E0,0E0,0E0,0E0],"parents":[2147483647,0,0,1,1,3,3,4,4,5,5,6,6,7,7,8,8],"right_children":[2,4,-1,6,8,10,12,14,16,-1,-1,-1,-1,-1,-1,-1,-1],"split_conditions":[9.5E-1,7.70553E-4,8.853335E-2,4.2648846E-1,8.040619E-4,4.198056E-1,4.90887E-1,3.2806805E-1,3.1409478E-1,-1.3811002E-2,1.5304635E-1,-5.852238E-2,-7.6740305E-3,2.0109601E-1,-4.551304E-3,-2.0134566E-2,1.425254E-3],"split_indices":[2,1,0,3,1,3,3,3,3,0,0,0,0,0,0,0,0],"split_type":[0,0,0,0,0,0,0,0,0,0,0,0,0,0,0,0,0],"sum_hessian":[1.8522976E3,1.8450468E3,7.2508936E0,1.419264E2,1.7031204E3,8.34094E1,5.8517002E1,2.6150393E1,1.67697E3,7.77026E1,5.7068048E0,2.5342386E1,3.3174614E1,6.4115744E0,1.9738817E1,1.3640343E2,1.5405665E3],"tree_param":{"num_deleted":"0","num_feature":"4","num_nodes":"17","size_leaf_vector":"1"}},{"base_weights":[-1.3953592E-3,-5.027018E-3,8.7510526E-2,8.3837565E-3,-9.422171E-2,-1.649675E-2,3.294096E-1,-7.4504256E-1,-2.8072072E-2,3.6068494E-5,-4.5680493E-2,2.5322633E-3,6.1217614E-2,-1.0924347E-1,-9.744528E-3,-1.867511E-2,1.457534E-2],"categories":[],"categories_nodes":[],"categories_segments":[],"categories_sizes":[],"default_left":[0,0,0,0,0,0,0,0,0,0,0,0,0,0,0,0,0],"id":48,"left_children":[1,3,-1,5,7,9,11,13,15,-1,-1,-1,-1,-1,-1,-1,-1],"loss_changes":[5.89745E0,2.2073424E0,0E0,1.2820998E1,1.03625145E1,1.105993E1,9.9121E0,4.8908806E0,6.0946035E0,0E0,0E0,0E0,0E0,0E0,0E0,0E0,0E0],"parents":[2147483647,0,0,1,1,3,3,4,4,5,5,6,6,7,7,8,8],"right_children":[2,4,-1,6,8,10,12,14,16,-1,-1,-1,-1,-1,-1,-1,-1],"split_conditions":[9.5E-1,6.688943E-1,8.7510526E-2,6.2697446E-1,6.907655E-1,6.1117864E-1,2.452799E-3,3.8660893E-3,3.966821E-3,3.6068494E-5,-4.5680493E-2,2.5322633E-3,6.1217614E-2,-1.0924347E-1,-9.744528E-3,-1.867511E-2,1.457534E-2],"split_indices":[2,3,0,3,3,3,1,1,1,0,0,0,0,0,0,0,0],"split_type":[0,0,0,0,0,0,0,0,0,0,0,0,0,0,0,0,0],"sum_hessian":[1.8503263E3,1.8436815E3,6.644774E0,1.6034956E3,2.401859E2,1.4890391E3,1.14456566E2,2.1213308E1,2.1897258E2,1.4350948E3,5.394419E1,5.567416E1,5.8782406E1,1.3359784E1,7.853524E0,1.144348E2,1.0453778E2],"tree_param":{"num_deleted":"0","num_feature":"4","num_nodes":"17","size_leaf_vector":"1"}},{"base_weights":[-1.3434077E-3,-4.6749734E-3,8.644084E-2,6.326342E-4,-2.4315824E-1,-8.643735E-3,4.997275E-1,3.8990897E-1,-3.3707234E-1,2.0319747E-3,-7.403785E-3,-8.53556E-2,7.042807E-2,-3.2312386E-3,7.6466374E-2,-9.9077925E-2,-2.4589619E-2],"categories":[],"categories_nodes":[],"categories_segments":[],"categories_sizes":[],"default_left":[0,0,0,0,0,0,0,0,0,0,0,0,0,0,0,0,0],"id":49,"left_children":[1,3,-1,5,7,9,11,13,15,-1,-1,-1,-1,-1,-1,-1,-1],"loss_changes":[5.338262E0,2.333356E0,0E0,8.357223E0,2.5175116E0,3.3581755E0,9.718998E0,9.1842437E-1,1.8713703E0,0E0,0E0,0E0,0E0,0E0,0E0,0E0,0E0],"parents":[2147483647,0,0,1,1,3,3,4,4,5,5,6,6,7,7,8,8],"right_children":[2,4,-1,6,8,10,12,14,16,-1,-1,-1,-1,-1,-1,-1,-1],"split_conditions":[9.5E-1,5.6485824E-2,8.644084E-2,2.4141755E-2,4.4046172E-1,2.9567948E-3,1E0,4.0643984E-1,4.6840826E-1,2.0319747E-3,-7.403785E-3,-8.53556E-2,7.042807E-2,-3.2312386E-3,7.6466374E-2,-9.9077925E-2,-2.4589619E-2],"split_indices":[2,1,0,1,3,1,0,3,3,0,0,0,0,0,0,0,0],"split_type":[0,0,0,0,0,0,0,0,0,0,0,0,0,0,0,0,0],"sum_hessian":[1.8483933E3,1.8422983E3,6.094889E0,1.803165E3,3.913332E1,1.771227E3,3.1938028E1,4.648229E0,3.448509E1,1.2280187E3,5.432083E2,3.777048E0,2.816098E1,2.6153712E0,2.0328581E0,3.0133793E0,3.147171E1],"tree_param":{"num_deleted":"0","num_feature":"4","num_nodes":"17","size_leaf_vector":"1"}},{"base_weights":[-1.1948342E-3,-4.2550154E-3,8.5324235E-2,1.2797558E-3,-2.1879913E-1,-8.524937E-3,3.4776378E-1,-8.1778824E-1,-5.6354433E-2,5.5162975E-4,-3.8224544E-2,4.073729E-3,1.0403086E-1,-9.602557E-2,-3.9488763E-2,1.3004345E-1,-1.47747E-2],"categories":[],"categories_nodes":[],"categories_segments":[],"categories_sizes":[],"default_left":[0,0,0,0,0,0,0,0,0,0,0,0,0,0,0,0,0],"id":50,"left_children":[1,3,-1,5,7,9,11,13,15,-1,-1,-1,-1,-1,-1,-1,-1],"loss_changes":[4.832701E0,2.1867054E0,0E0,6.1041503E0,4.460199E0,9.172189E0,1.0471499E1,2.1162844E-1,4.8428745E0,0E0,0E0,0E0,0E0,0E0,0E0,0E0,0E0],"parents":[2147483647,0,0,1,1,3,3,4,4,5,5,6,6,7,7,8,8],"right_children":[2,4,-1,6,8,10,12,14,16,-1,-1,-1,-1,-1,-1,-1,-1],"split_conditions":[9.5E-1,8.3718103E-1,8.5324235E-2,7.7217495E-1,2.3930331E-3,7.223572E-1,7.125434E-3,1.5731396E-3,2.452799E-3,5.5162975E-4,-3.8224544E-2,4.073729E-3,1.0403086E-1,-9.602557E-2,-3.9488763E-2,1.3004345E-1,-1.47747E-2],"split_indices":[2,3,0,3,1,3,1,1,1,0,0,0,0,0,0,0,0],"split_type":[0,0,0,0,0,0,0,0,0,0,0,0,0,0,0,0,0],"sum_hessian":[1.8458699E3,1.8402738E3,5.5959516E0,1.7949618E3,4.5312073E1,1.7465149E3,4.8446915E1,8.8062315E0,3.650584E1,1.6842214E3,6.2293457E1,3.4299644E1,1.4147269E1,5.636692E0,3.1695392E0,1.4689598E0,3.503688E1],"tree_param":{"num_deleted":"0","num_feature":"4","num_nodes":"17","size_leaf_vector":"1"}},{"base_weights":[-1.0349798E-3,-3.8472726E-3,8.416109E-2,2.7146375E-1,-8.014946E-3,5.9232E-1,-3.2217255E-1,-5.052439E-1,9.551629E-4,9.709907E-3,1.7443804E-1,-6.3358225E-2,7.830898E-2,-1.3303161E-2,-6.585579E-2,1.2848058E-1,-3.1234528E-4],"categories":[],"categories_nodes":[],"categories_segments":[],"categories_sizes":[],"default_left":[0,0,0,0,0,0,0,0,0,0,0,0,0,0,0,0,0],"id":51,"left_children":[1,3,-1,5,7,9,11,13,15,-1,-1,-1,-1,-1,-1,-1,-1],"loss_changes":[4.3764715E0,2.1137307E0,0E0,5.423394E0,8.090449E0,1.0205769E1,4.0365877E0,1.7466774E0,9.338667E0,0E0,0E0,0E0,0E0,0E0,0E0,0E0,0E0],"parents":[2147483647,0,0,1,1,3,3,4,4,5,5,6,6,7,7,8,8],"right_children":[2,4,-1,6,8,10,12,14,16,-1,-1,-1,-1,-1,-1,-1,-1],"split_conditions":[9.5E-1,2.3511544E-1,8.416109E-2,1.5731396E-3,2.490887E-1,1.3350594E-3,5.0019776E-3,9.529917E-4,2.509113E-1,9.709907E-3,1.7443804E-1,-6.3358225E-2,7.830898E-2,-1.3303161E-2,-6.585579E-2,1.2848058E-1,-3.1234528E-4],"split_indices":[2,3,0,1,3,1,1,1,3,0,0,0,0,0,0,0,0],"split_type":[0,0,0,0,0,0,0,0,0,0,0,0,0,0,0,0,0],"sum_hessian":[1.8444281E3,1.839285E3,5.1430974E0,2.647158E1,1.8128135E3,1.7185276E1,9.2863035E0,3.1143599E1,1.7816699E3,1.2777196E1,4.4080806E0,7.5779586E0,1.7083452E0,9.630529E0,2.151307E1,4.647786E0,1.7770221E3],"tree_param":{"num_deleted":"0","num_feature":"4","num_nodes":"17","size_leaf_vector":"1"}},{"base_weights":[-8.0484594E-4,-3.391795E-3,8.295218E-2,-4.8368645E-1,-1.0122416E-3,-7.72201E-2,-2.129288E-1,8.569844E-2,-1.6476722E-2,2.8020713E-2,-4.0565692E-2,-9.922757E-3,3.5344914E-2,-2.8482992E-2,1.0726053E-3],"categories":[],"categories_nodes":[],"categories_segments":[],"categories_sizes":[],"default_left":[0,0,0,0,0,0,0,0,0,0,0,0,0,0,0],"id":52,"left_children":[1,3,-1,5,7,-1,9,11,13,-1,-1,-1,-1,-1,-1],"loss_changes":[3.964124E0,2.101785E0,0E0,5.43808E-1,2.4571698E0,0E0,6.8940544E-1,1.3767546E1,1.1354708E1,0E0,0E0,0E0,0E0,0E0,0E0],"parents":[2147483647,0,0,1,1,3,3,4,4,6,6,7,7,8,8],"right_children":[2,4,-1,6,8,-1,10,12,14,-1,-1,-1,-1,-1,-1],"split_conditions":[9.5E-1,2.644426E-4,8.295218E-2,3.8760632E-1,3.329283E-1,-7.72201E-2,4.0643984E-1,3.1409478E-1,3.8760632E-1,2.8020713E-2,-4.0565692E-2,-9.922757E-3,3.5344914E-2,-2.8482992E-2,1.0726053E-3],"split_indices":[2,1,0,3,3,0,3,3,3,0,0,0,0,0,0],"split_type":[0,0,0,0,0,0,0,0,0,0,0,0,0,0,0],"sum_hessian":[1.8431744E3,1.8384426E3,4.7318997E0,8.066239E0,1.8303763E3,3.0084684E0,5.057771E0,2.7634488E2,1.5540315E3,1.2936901E0,3.764081E0,1.6382565E2,1.1251923E2,1.4216035E2,1.4118711E3],"tree_param":{"num_deleted":"0","num_feature":"4","num_nodes":"15","size_leaf_vector":"1"}},{"base_weights":[-7.7810074E-4,-3.160704E-3,8.1699304E-2,9.0667175E-4,-2.8025317E-1,-7.806687E-3,2.5480315E-1,3.6400195E-2,-7.039226E-1,-4.0809745E-3,4.8950496E-3,-9.1643654E-2,3.9453052E-2,4.518342E-2,-1.38705E-2,-7.854724E-2,-5.9197247E-3],"categories":[],"categories_nodes":[],"categories_segments":[],"categories_sizes":[],"default_left":[0,0,0,0,0,0,0,0,0,0,0,0,0,0,0,0,0],"id":53,"left_children":[1,3,-1,5,7,9,11,13,15,-1,-1,-1,-1,-1,-1,-1,-1],"loss_changes":[3.593925E0,2.0727053E0,0E0,4.0134053E0,3.5948172E0,3.287611E0,1.021237E1,1.2393965E0,5.543871E-1,0E0,0E0,0E0,0E0,0E0,0E0,0E0,0E0],"parents":[2147483647,0,0,1,1,3,3,4,4,5,5,6,6,7,7,8,8],"right_children":[2,4,-1,6,8,10,12,14,16,-1,-1,-1,-1,-1,-1,-1,-1],"split_conditions":[9.5E-1,7.980754E-2,8.1699304E-2,1.757973E-2,5.6986636E-1,5.3341436E-1,1E0,4.4046172E-1,8.1470233E-1,-4.0809745E-3,4.8950496E-3,-9.1643654E-2,3.9453052E-2,4.518342E-2,-1.38705E-2,-7.854724E-2,-5.9197247E-3],"split_indices":[2,1,0,1,3,3,0,3,3,0,0,0,0,0,0,0,0],"split_type":[0,0,0,0,0,0,0,0,0,0,0,0,0,0,0,0,0],"sum_hessian":[1.842204E3,1.8378455E3,4.358489E0,1.8122407E3,2.560473E1,1.7530479E3,5.919281E1,1.5176098E1,1.0428633E1,1.1086647E3,6.4438324E2,5.7165027E0,5.3476307E1,4.0313745E0,1.1144724E1,9.063862E0,1.3647718E0],"tree_param":{"num_deleted":"0","num_feature":"4","num_nodes":"17","size_leaf_vector":"1"}},{"base_weights":[-7.237154E-4,-2.922727E-3,8.0405004E-2,2.1045137E-2,-5.1187064E-2,-1.6529879E-2,2.215486E-1,-1.7654464E-1,7.702785E-2,2.8296318E-3,-1.949597E-2,-2.1188386E-2,3.549493E-2,-2.6529325E-2,2.8363246E-2,3.05215E-2,-7.7955797E-3],"categories":[],"categories_nodes":[],"categories_segments":[],"categories_sizes":[],"default_left":[0,0,0,0,0,0,0,0,0,0,0,0,0,0,0,0,0],"id":54,"left_children":[1,3,-1,5,7,9,11,13,15,-1,-1,-1,-1,-1,-1,-1,-1],"loss_changes":[3.2597373E0,2.1256635E0,0E0,9.254604E0,9.813323E0,8.28411E0,1.1284518E1,1.2678288E1,1.0708244E1,0E0,0E0,0E0,0E0,0E0,0E0,0E0,0E0],"parents":[2147483647,0,0,1,1,3,3,4,4,5,5,6,6,7,7,8,8],"right_children":[2,4,-1,6,8,10,12,14,16,-1,-1,-1,-1,-1,-1,-1,-1],"split_conditions":[9.5E-1,2.9567948E-3,8.0405004E-2,2.3331805E-3,5.4799515E-1,1.8625387E-3,3.9307413E-1,1E0,6.3183475E-1,2.8296318E-3,-1.949597E-2,-2.1188386E-2,3.549493E-2,-2.6529325E-2,2.8363246E-2,3.05215E-2,-7.7955797E-3],"split_indices":[2,1,0,1,3,1,3,0,3,0,0,0,0,0,0,0,0],"split_type":[0,0,0,0,0,0,0,0,0,0,0,0,0,0,0,0,0],"sum_hessian":[1.8396367E3,1.8356173E3,4.0193815E0,1.2269054E3,6.08712E2,1.0340403E3,1.9286502E2,3.0759497E2,3.0111697E2,8.2709424E2,2.069461E2,4.525113E1,1.4761389E2,2.58219E2,4.9375977E1,1.2140272E2,1.7971426E2],"tree_param":{"num_deleted":"0","num_feature":"4","num_nodes":"17","size_leaf_vector":"1"}},{"base_weights":[-6.9934747E-4,-2.7317777E-3,7.90715E-2,8.8796966E-2,-1.663343E-2,-8.897584E-2,4.5500228E-1,-2.0215368E-1,6.4716074E-3,-2.173068E-3,-5.6635518E-2,1.5075968E-1,3.2210886E-2,-3.2543577E-3,-5.1172186E-2,7.493202E-2,-1.3444673E-3],"categories":[],"categories_nodes":[],"categories_segments":[],"categories_sizes":[],"default_left":[0,0,0,0,0,0,0,0,0,0,0,0,0,0,0,0,0],"id":55,"left_children":[1,3,-1,5,7,9,11,13,15,-1,-1,-1,-1,-1,-1,-1,-1],"loss_changes":[2.9583704E0,2.3352675E0,0E0,1.57952385E1,6.8303103E0,5.2443976E0,1.0600203E1,9.249157E0,2.098445E1,0E0,0E0,0E0,0E0,0E0,0E0,0E0,0E0],"parents":[2147483647,0,0,1,1,3,3,4,4,5,5,6,6,7,7,8,8],"right_children":[2,4,-1,6,8,10,12,14,16,-1,-1,-1,-1,-1,-1,-1,-1],"split_conditions":[9.5E-1,3.2867557E-1,7.90715E-2,3.1409478E-1,3.8760632E-1,3.037667E-1,3.1530985E-1,3.602673E-1,3.912515E-1,-2.173068E-3,-5.6635518E-2,1.5075968E-1,3.2210886E-2,-3.2543577E-3,-5.1172186E-2,7.493202E-2,-1.3444673E-3],"split_indices":[2,3,0,3,3,3,3,3,3,0,0,0,0,0,0,0,0],"split_type":[0,0,0,0,0,0,0,0,0,0,0,0,0,0,0,0,0],"sum_hessian":[1.8368741E3,1.833163E3,3.7111955E0,2.4100354E2,1.5921594E3,1.6275288E2,7.825066E1,1.754718E2,1.4166876E3,1.4357411E2,1.917878E1,7.6123033E0,7.063836E1,1.1407569E2,6.1396107E1,3.6034363E1,1.3806533E3],"tree_param":{"num_deleted":"0","num_feature":"4","num_nodes":"17","size_leaf_vector":"1"}},{"base_weights":[-6.3222775E-4,-2.5109902E-3,7.770227E-2,2.5837193E-3,-2.3282401E-1,-5.1458566E-3,4.391671E-1,-1.1955712E-1,-7.236292E-1,2.2632615E-3,-5.612209E-3,-8.1367046E-2,6.1192393E-2,3.1215116E-2,-2.0095896E-2,-8.943728E-2,1.0285956E-2],"categories":[],"categories_nodes":[],"categories_segments":[],"categories_sizes":[],"default_left":[0,0,0,0,0,0,0,0,0,0,0,0,0,0,0,0,0],"id":56,"left_children":[1,3,-1,5,7,9,11,13,15,-1,-1,-1,-1,-1,-1,-1,-1],"loss_changes":[2.6861432E0,2.1522975E0,0E0,6.059893E0,2.1203403E0,2.500336E0,7.259323E0,1.2382879E0,1.1144714E0,0E0,0E0,0E0,0E0,0E0,0E0,0E0,0E0],"parents":[2147483647,0,0,1,1,3,3,4,4,5,5,6,6,7,7,8,8],"right_children":[2,4,-1,6,8,10,12,14,16,-1,-1,-1,-1,-1,-1,-1,-1],"split_conditions":[9.5E-1,5.6485824E-2,7.770227E-2,2.4141755E-2,7.308627E-1,2.6119994E-3,1E0,4.4046172E-1,1.4251752E-1,2.2632615E-3,-5.612209E-3,-8.1367046E-2,6.1192393E-2,3.1215116E-2,-2.0095896E-2,-8.943728E-2,1.0285956E-2],"split_indices":[2,1,0,1,3,1,0,3,1,0,0,0,0,0,0,0,0],"split_type":[0,0,0,0,0,0,0,0,0,0,0,0,0,0,0,0,0],"sum_hessian":[1.836193E3,1.832762E3,3.4310596E0,1.7940646E3,3.869737E1,1.7638248E3,3.0239767E1,3.245181E1,6.2455606E0,1.1420459E3,6.217789E2,3.214949E0,2.7024818E1,4.698577E0,2.7753233E1,5.108139E0,1.1374218E0],"tree_param":{"num_deleted":"0","num_feature":"4","num_nodes":"17","size_leaf_vector":"1"}},{"base_weights":[-5.751839E-4,-2.3153098E-3,7.630042E-2,2.7000684E-1,-6.437427E-3,5.404646E-1,-2.7272734E-1,-4.6248162E-1,1.4003118E-3,9.924239E-3,1.4891551E-1,-5.9070963E-2,7.521855E-2,-2.1547675E-2,-6.970502E-2,1.1293425E-1,-2.3964583E-4],"categories":[],"categories_nodes":[],"categories_segments":[],"categories_sizes":[],"default_left":[0,0,0,0,0,0,0,0,0,0,0,0,0,0,0,0,0],"id":57,"left_children":[1,3,-1,5,7,9,11,13,15,-1,-1,-1,-1,-1,-1,-1,-1],"loss_changes":[2.4405003E0,2.0584836E0,0E0,4.1611147E0,6.455486E0,7.6315894E0,3.6247764E0,1.6178298E0,7.610033E0,0E0,0E0,0E0,0E0,0E0,0E0,0E0,0E0],"parents":[2147483647,0,0,1,1,3,3,4,4,5,5,6,6,7,7,8,8],"right_children":[2,4,-1,6,8,10,12,14,16,-1,-1,-1,-1,-1,-1,-1,-1],"split_conditions":[9.5E-1,2.3511544E-1,7.630042E-2,1.5731396E-3,2.490887E-1,1.3350594E-3,5.0019776E-3,2.4483597E-1,2.509113E-1,9.924239E-3,1.4891551E-1,-5.9070963E-2,7.521855E-2,-2.1547675E-2,-6.970502E-2,1.1293425E-1,-2.3964583E-4],"split_indices":[2,3,0,1,3,1,1,3,3,0,0,0,0,0,0,0,0],"split_type":[0,0,0,0,0,0,0,0,0,0,0,0,0,0,0,0,0],"sum_hessian":[1.8343948E3,1.8312186E3,3.176208E0,2.6343872E1,1.8048748E3,1.7585012E1,8.758861E0,2.9515036E1,1.7753597E3,1.2756678E1,4.828335E0,7.0081954E0,1.7506651E0,1.53109455E1,1.4204091E1,4.9614687E0,1.7703982E3],"tree_param":{"num_deleted":"0","num_feature":"4","num_nodes":"17","size_leaf_vector":"1"}},{"base_weights":[-4.1276385E-4,-2.025731E-3,7.486976E-2,-1.1657903E-1,7.524725E-3,-2.1769486E-3,-2.7993032E-1,4.424412E-1,2.1313808E-4,-1.2270666E-2,1.2731351E-1,-5.54818E-2,-6.733107E-3,1.3718839E-1,-1.763237E-2,-1.5629759E-2,1.3644567E-3],"categories":[],"categories_nodes":[],"categories_segments":[],"categories_sizes":[],"default_left":[0,0,0,0,0,0,0,0,0,0,0,0,0,0,0,0,0],"id":58,"left_children":[1,3,-1,5,7,9,11,13,15,-1,-1,-1,-1,-1,-1,-1,-1],"loss_changes":[2.218127E0,2.0046673E0,0E0,2.6345263E0,5.37891E0,1.3058499E1,3.3563905E0,1.6325768E1,3.501354E0,0E0,0E0,0E0,0E0,0E0,0E0,0E0,0E0],"parents":[2147483647,0,0,1,1,3,3,4,4,5,5,6,6,7,7,8,8],"right_children":[2,4,-1,6,8,10,12,14,16,-1,-1,-1,-1,-1,-1,-1,-1],"split_conditions":[9.5E-1,7.70553E-4,7.486976E-2,4.2648846E-1,8.040619E-4,4.198056E-1,4.90887E-1,3.420413E-1,3.1409478E-1,-1.2270666E-2,1.2731351E-1,-5.54818E-2,-6.733107E-3,1.3718839E-1,-1.763237E-2,-1.5629759E-2,1.3644567E-3],"split_indices":[2,1,0,3,1,3,3,3,3,0,0,0,0,0,0,0,0],"split_type":[0,0,0,0,0,0,0,0,0,0,0,0,0,0,0,0,0],"sum_hessian":[1.8335015E3,1.8305571E3,2.944218E0,1.4000888E2,1.6905483E3,8.293746E1,5.707142E1,2.696677E1,1.6635815E3,7.660162E1,6.3358345E0,2.4187567E1,3.288385E1,1.0291237E1,1.6675533E1,1.3064098E2,1.5329406E3],"tree_param":{"num_deleted":"0","num_feature":"4","num_nodes":"17","size_leaf_vector":"1"}},{"base_weights":[-3.130071E-4,8.6413346E-2,-1.350806E-2,-7.110575E-2,3.9624417E-1,-1.496655E-1,1.4863344E-2,-8.963652E-3,-5.2855146E-1,1.2479311E0,2.8113976E-1,-5.7120796E-2,-6.536682E-1,6.595774E-1,9.4256E-3,6.914285E-3,-4.2857714E-2,7.86105E-2,-7.4461006E-2,-3.7155356E-2,1.982805E-1,8.276824E-2,6.196505E-3,-1.8590892E-2,3.1971883E-2,-9.423493E-2,-4.036797E-2,2.5677845E-2,1.7119436E-1,-6.753939E-2,1.5414933E-3],"categories":[],"categories_nodes":[],"categories_segments":[],"categories_sizes":[],"default_left":[0,0,0,0,0,0,0,0,0,0,0,0,0,0,0,0,0,0,0,0,0,0,0,0,0,0,0,0,0,0,0],"id":59,"left_children":[1,3,5,7,9,11,13,15,17,19,21,23,25,27,29,-1,-1,-1,-1,-1,-1,-1,-1,-1,-1,-1,-1,-1,-1,-1,-1],"loss_changes":[2.099147E0,1.18502035E1,6.1524324E0,4.5843763E0,7.6678867E0,1.2772207E1,4.6160235E0,4.7212005E0,6.0646544E0,1.1980614E1,8.735016E0,1.13734255E1,2.6873226E0,4.228664E0,5.377149E0,0E0,0E0,0E0,0E0,0E0,0E0,0E0,0E0,0E0,0E0,0E0,0E0,0E0,0E0,0E0,0E0],"parents":[2147483647,0,0,1,1,2,2,3,3,4,4,5,5,6,6,7,7,8,8,9,9,10,10,11,11,12,12,13,13,14,14],"right_children":[2,4,6,8,10,12,14,16,18,20,22,24,26,28,30,-1,-1,-1,-1,-1,-1,-1,-1,-1,-1,-1,-1,-1,-1,-1,-1],"split_conditions":[3.2867557E-1,3.1409478E-1,4.0036452E-1,3.037667E-1,3.1530985E-1,3.9368165E-1,4.0279466E-1,2.7366513E-3,5.9173256E-4,1.8625387E-3,9.529917E-4,3.8760632E-1,1.5317595E-3,2.7366513E-3,4.0400973E-1,6.914285E-3,-4.2857714E-2,7.86105E-2,-7.4461006E-2,-3.7155356E-2,1.982805E-1,8.276824E-2,6.196505E-3,-1.8590892E-2,3.1971883E-2,-9.423493E-2,-4.036797E-2,2.5677845E-2,1.7119436E-1,-6.753939E-2,1.5414933E-3],"split_indices":[3,3,3,3,3,3,3,1,1,1,1,3,1,1,3,0,0,0,0,0,0,0,0,0,0,0,0,0,0,0,0],"split_type":[0,0,0,0,0,0,0,0,0,0,0,0,0,0,0,0,0,0,0,0,0,0,0,0,0,0,0,0,0,0,0],"sum_hessian":[1.8323234E3,2.4123346E2,1.59109E3,1.6043715E2,8.079631E1,2.736308E2,1.3174591E3,1.421467E2,1.8290443E1,8.447723E0,7.234859E1,2.3212201E2,4.1508785E1,1.0012837E1,1.3074463E3,1.2054397E2,2.1602732E1,2.209269E0,1.6081175E1,2.7911344E0,5.6565886E0,1.9913973E1,5.2434616E1,1.7337598E2,5.8746037E1,1.7978296E1,2.3530487E1,8.140874E0,1.8719637E0,1.0366584E1,1.2970797E3],"tree_param":{"num_deleted":"0","num_feature":"4","num_nodes":"31","size_leaf_vector":"1"}},{"base_weights":[-3.3454585E-4,-1.8328397E-3,7.341801E-2,3.4021747E-3,-2.0661318E-1,-5.4942467E-3,3.131628E-1,-5.972249E-1,4.442942E-2,1.1071883E-4,-7.056736E-2,3.1285551E-3,9.45423E-2,-3.0979095E-2,-8.928599E-2,6.388297E-2,-1.6526403E-2],"categories":[],"categories_nodes":[],"categories_segments":[],"categories_sizes":[],"default_left":[0,0,0,0,0,0,0,0,0,0,0,0,0,0,0,0,0],"id":60,"left_children":[1,3,-1,5,7,9,11,13,15,-1,-1,-1,-1,-1,-1,-1,-1],"loss_changes":[2.018309E0,1.9625205E0,0E0,4.921783E0,4.5012565E0,8.027262E0,8.856844E0,1.2463832E0,3.6840203E0,0E0,0E0,0E0,0E0,0E0,0E0,0E0,0E0],"parents":[2147483647,0,0,1,1,3,3,4,4,5,5,6,6,7,7,8,8],"right_children":[2,4,-1,6,8,10,12,14,16,-1,-1,-1,-1,-1,-1,-1,-1],"split_conditions":[9.5E-1,8.3718103E-1,7.341801E-2,7.7217495E-1,3.6143025E-3,7.6609963E-1,7.125434E-3,8.639125E-1,4.2376635E-3,1.1071883E-4,-7.056736E-2,3.1285551E-3,9.45423E-2,-3.0979095E-2,-8.928599E-2,6.388297E-2,-1.6526403E-2],"split_indices":[2,3,0,3,1,3,1,3,1,0,0,0,0,0,0,0,0],"split_type":[0,0,0,0,0,0,0,0,0,0,0,0,0,0,0,0,0],"sum_hessian":[1.831739E3,1.8290056E3,2.733378E0,1.7843732E3,4.4632412E1,1.735511E3,4.8862152E1,1.6922594E1,2.770982E1,1.7202902E3,1.5220832E1,3.4521217E1,1.4340933E1,9.618653E0,7.3039412E0,6.6925426E0,2.1017277E1],"tree_param":{"num_deleted":"0","num_feature":"4","num_nodes":"17","size_leaf_vector":"1"}},{"base_weights":[-3.2292382E-4,-1.8712582E-1,5.158972E-3,-6.4818627E-1,-1.1631729E-2,1.1615005E-1,-1.1390057E-2,-2.5319442E-1,-8.413062E-2,9.4704665E-2,-8.5554965E-2,5.1139754E-1,-1.7014574E-2,-2.1205772E-1,5.4663992E-3,-4.5805074E-2,3.2488037E-2,-9.081628E-3,1.1707564E-1,2.5851427E-2,1.7885031E-1,-2.1042315E-2,1.666482E-2,6.0383555E-2,-2.4707401E-2,6.568514E-2,-9.7130665E-5],"categories":[],"categories_nodes":[],"categories_segments":[],"categories_sizes":[],"default_left":[0,0,0,0,0,0,0,0,0,0,0,0,0,0,0,0,0,0,0,0,0,0,0,0,0,0,0],"id":61,"left_children":[1,3,5,7,9,11,13,15,-1,17,-1,19,21,23,25,-1,-1,-1,-1,-1,-1,-1,-1,-1,-1,-1,-1],"loss_changes":[1.876845E0,4.2203126E0,3.2719216E0,8.844509E-1,3.5686862E0,1.2173871E1,5.2456923E0,8.7768584E-1,0E0,7.176367E0,0E0,1.8359539E1,6.210647E0,3.5825276E0,6.0026636E0,0E0,0E0,0E0,0E0,0E0,0E0,0E0,0E0,0E0,0E0,0E0,0E0],"parents":[2147483647,0,0,1,1,2,2,3,3,4,4,5,5,6,6,7,7,9,9,11,11,12,12,13,13,14,14],"right_children":[2,4,6,8,10,12,14,16,-1,18,-1,20,22,24,26,-1,-1,-1,-1,-1,-1,-1,-1,-1,-1,-1,-1],"split_conditions":[5.6351663E-4,3.2989064E-1,3.2867557E-1,2.5394896E-1,5.4635265E-4,9.529917E-4,8.688864E-4,2.490887E-1,-8.413062E-2,5.270396E-4,-8.5554965E-2,3.250304E-1,1.8285688E-3,5.7647703E-4,8.8708574E-4,-4.5805074E-2,3.2488037E-2,-9.081628E-3,1.1707564E-1,2.5851427E-2,1.7885031E-1,-2.1042315E-2,1.666482E-2,6.0383555E-2,-2.4707401E-2,6.568514E-2,-9.7130665E-5],"split_indices":[1,3,3,3,1,1,1,3,0,1,0,3,1,1,1,0,0,0,0,0,0,0,0,0,0,0,0],"split_type":[0,0,0,0,0,0,0,0,0,0,0,0,0,0,0,0,0,0,0,0,0,0,0,0,0,0,0],"sum_hessian":[1.8308528E3,5.1251587E1,1.7796012E3,1.3387161E1,3.7864426E1,2.3013208E2,1.5494691E3,5.154875E0,8.232286E0,3.4415714E1,3.4487116E0,5.727957E1,1.7285251E2,1.1917463E2,1.4302944E3,3.959387E0,1.1954876E0,3.0135658E1,4.280055E0,4.8815834E1,8.463738E0,8.4121506E1,8.8730995E1,4.2357435E0,1.1493889E2,1.3008675E1,1.4172858E3],"tree_param":{"num_deleted":"0","num_feature":"4","num_nodes":"27","size_leaf_vector":"1"}},{"base_weights":[-2.835853E-4,2.587623E-1,-4.215891E-3,4.8717278E-1,-2.3027267E-1,-4.2374817E-1,2.697477E-3,8.3633564E-2,1.3185467E0,-5.5500185E-1,7.209034E-2,-7.500709E-2,-5.7837194E-1,9.433209E-1,-6.749753E-4,4.6589524E-2,-9.206932E-2,5.4613877E-2,1.5243989E-1,5.7728216E-4,-8.647048E-2,-4.8993517E-2,1.7674862E-1,-8.13104E-2,-1.86909E-2,2.010666E-1,-8.127973E-2,-6.0649525E-2,3.1243067E-4],"categories":[],"categories_nodes":[],"categories_segments":[],"categories_sizes":[],"default_left":[0,0,0,0,0,0,0,0,0,0,0,0,0,0,0,0,0,0,0,0,0,0,0,0,0,0,0,0,0],"id":62,"left_children":[1,3,5,7,9,11,13,15,17,19,-1,21,23,25,27,-1,-1,-1,-1,-1,-1,-1,-1,-1,-1,-1,-1,-1,-1],"loss_changes":[1.866487E0,3.1726296E0,5.2358932E0,6.2629967E0,3.304093E0,1.5347385E0,5.636328E0,5.7488008E0,1.4373207E-1,1.320396E0,0E0,8.617164E0,1.697465E0,1.3532122E1,4.0787168E0,0E0,0E0,0E0,0E0,0E0,0E0,0E0,0E0,0E0,0E0,0E0,0E0,0E0,0E0],"parents":[2147483647,0,0,1,1,2,2,3,3,4,4,5,5,6,6,7,7,8,8,9,9,11,11,12,12,13,13,14,14],"right_children":[2,4,6,8,10,12,14,16,18,20,-1,22,24,26,28,-1,-1,-1,-1,-1,-1,-1,-1,-1,-1,-1,-1,-1,-1],"split_conditions":[2.3511544E-1,1.5731396E-3,2.490887E-1,1.3350594E-3,5.0019776E-3,9.529917E-4,2.509113E-1,1.0403614E-3,1.4462832E-3,2.0726686E-3,7.209034E-2,8.998122E-4,2.0566292E-3,1.17603E-3,2.527339E-1,4.6589524E-2,-9.206932E-2,5.4613877E-2,1.5243989E-1,5.7728216E-4,-8.647048E-2,-4.8993517E-2,1.7674862E-1,-8.13104E-2,-1.86909E-2,2.010666E-1,-8.127973E-2,-6.0649525E-2,3.1243067E-4],"split_indices":[3,1,3,1,1,1,3,1,1,1,0,1,1,1,3,0,0,0,0,0,0,0,0,0,0,0,0,0,0],"split_type":[0,0,0,0,0,0,0,0,0,0,0,0,0,0,0,0,0,0,0,0,0,0,0,0,0,0,0,0,0],"sum_hessian":[1.8302479E3,2.6398632E1,1.8038492E3,1.799679E1,8.401841E0,2.8265827E1,1.7755835E3,1.2856831E1,5.1399593E0,6.5740027E0,1.8278387E0,9.138898E0,1.912693E1,5.34761E0,1.7702358E3,9.700709E0,3.156122E0,1.8502884E0,3.2896712E0,2.6880853E0,3.8859172E0,8.058272E0,1.0806257E0,1.1283774E1,7.843155E0,3.2359154E0,2.1116948E0,1.0043852E1,1.760192E3],"tree_param":{"num_deleted":"0","num_feature":"4","num_nodes":"29","size_leaf_vector":"1"}},{"base_weights":[-2.0456512E-4,-1.5931865E-3,7.186766E-2,3.1839935E-3,-2.1808763E-1,-3.6894605E-3,4.0159285E-1,-1.0808122E-1,-6.997163E-1,2.2559303E-3,-5.194539E-3,-7.966512E-2,5.6220718E-2,2.9831577E-2,-1.8538592E-2,-8.611453E-2,7.906374E-3],"categories":[],"categories_nodes":[],"categories_segments":[],"categories_sizes":[],"default_left":[0,0,0,0,0,0,0,0,0,0,0,0,0,0,0,0,0],"id":63,"left_children":[1,3,-1,5,7,9,11,13,15,-1,-1,-1,-1,-1,-1,-1,-1],"loss_changes":[1.8285546E0,1.8913498E0,0E0,4.9021835E0,2.016214E0,2.2307858E0,6.2908216E0,1.1022072E0,9.680271E-1,0E0,0E0,0E0,0E0,0E0,0E0,0E0,0E0],"parents":[2147483647,0,0,1,1,3,3,4,4,5,5,6,6,7,7,8,8],"right_children":[2,4,-1,6,8,10,12,14,16,-1,-1,-1,-1,-1,-1,-1,-1],"split_conditions":[9.5E-1,5.6485824E-2,7.186766E-2,2.4141755E-2,7.308627E-1,2.6119994E-3,1E0,4.4046172E-1,1.4251752E-1,2.2559303E-3,-5.194539E-3,-7.966512E-2,5.6220718E-2,2.9831577E-2,-1.8538592E-2,-8.611453E-2,7.906374E-3],"split_indices":[2,1,0,1,3,1,0,3,1,0,0,0,0,0,0,0,0],"split_type":[0,0,0,0,0,0,0,0,0,0,0,0,0,0,0,0,0],"sum_hessian":[1.8296063E3,1.827075E3,2.5314717E0,1.788593E3,3.848191E1,1.759233E3,2.9360008E1,3.2323475E1,6.1584363E0,1.1397822E3,6.194508E2,3.0022259E0,2.6357782E1,4.708988E0,2.7614489E1,5.0134616E0,1.1449745E0],"tree_param":{"num_deleted":"0","num_feature":"4","num_nodes":"17","size_leaf_vector":"1"}},{"base_weights":[-1.959918E-4,-4.5146763E-1,1.9301872E-3,-7.465732E-2,-1.916623E-1,7.384257E-2,-1.09884E-2,1.5756172E-1,-4.6814302E-1,2.9455706E-1,-5.5390056E-2,-2.195743E-1,8.986136E-3,-1.743719E-2,4.677153E-2,-3.2745253E-3,-6.292348E-2,6.930891E-3,8.76664E-2,-2.195696E-2,8.553804E-3,-1.3856636E-2,-9.109106E-2,5.8674145E-2,-7.656109E-4],"categories":[],"categories_nodes":[],"categories_segments":[],"categories_sizes":[],"default_left":[0,0,0,0,0,0,0,0,0,0,0,0,0,0,0,0,0,0,0,0,0,0,0,0,0],"id":64,"left_children":[1,3,5,-1,7,9,11,13,15,17,19,21,23,-1,-1,-1,-1,-1,-1,-1,-1,-1,-1,-1,-1],"loss_changes":[1.755859E0,5.148674E-1,1.6930088E0,0E0,6.4431554E-1,7.9321866E0,6.4390388E0,4.2739603E-1,2.2838235E-1,1.3397827E1,4.088123E0,7.43767E0,1.3570805E1,0E0,0E0,0E0,0E0,0E0,0E0,0E0,0E0,0E0,0E0,0E0,0E0],"parents":[2147483647,0,0,1,1,2,2,4,4,5,5,6,6,7,7,8,8,9,9,10,10,11,11,12,12],"right_children":[2,4,6,-1,8,10,12,14,16,18,20,22,24,-1,-1,-1,-1,-1,-1,-1,-1,-1,-1,-1,-1],"split_conditions":[2.644426E-4,3.8760632E-1,3.329283E-1,-7.465732E-2,2.1117354E-4,1.093162E-3,3.8760632E-1,4.7691372E-1,4.2466587E-1,3.250304E-1,1.9438113E-3,3.8274604E-1,3.912515E-1,-1.743719E-2,4.677153E-2,-3.2745253E-3,-6.292348E-2,6.930891E-3,8.76664E-2,-2.195696E-2,8.553804E-3,-1.3856636E-2,-9.109106E-2,5.8674145E-2,-7.656109E-4],"split_indices":[1,3,3,0,1,1,3,3,3,3,1,3,3,0,0,0,0,0,0,0,0,0,0,0,0],"split_type":[0,0,0,0,0,0,0,0,0,0,0,0,0,0,0,0,0,0,0,0,0,0,0,0,0],"sum_hessian":[1.8280947E3,7.5816755E0,1.8205131E3,2.672486E0,4.9091897E0,2.7652087E2,1.5439922E3,2.359284E0,2.5499055E0,1.0164448E2,1.7487639E2,1.340605E2,1.4099316E3,1.3510969E0,1.0081872E0,1.0136069E0,1.5362986E0,7.409301E1,2.7551468E1,8.051701E1,9.4359375E1,1.2107398E2,1.298652E1,3.851686E1,1.3714148E3],"tree_param":{"num_deleted":"0","num_feature":"4","num_nodes":"25","size_leaf_vector":"1"}},{"base_weights":[-3.1903066E-4,-1.2810333E-1,7.485085E-3,-3.5104446E-2,-6.5283674E-1,5.8079414E-2,-1.7995397E-2,1.180191E-1,-6.3716926E-2,-8.891196E-1,-1.8981232E-1,2.3676815E-2,4.8968762E-1,-1.659845E-1,2.2285134E-2,4.64168E-3,-2.3869887E-2,-9.773545E-2,-6.723528E-3,-7.613114E-2,2.450499E-2,9.24367E-3,-1.500837E-2,3.2387774E-2,1.8988591E-1,-3.7034806E-5,-4.1023426E-2,2.0351108E-2,-3.509165E-3],"categories":[],"categories_nodes":[],"categories_segments":[],"categories_sizes":[],"default_left":[0,0,0,0,0,0,0,0,0,0,0,0,0,0,0,0,0,0,0,0,0,0,0,0,0,0,0,0,0],"id":65,"left_children":[1,3,5,7,9,11,13,-1,15,17,19,21,23,25,27,-1,-1,-1,-1,-1,-1,-1,-1,-1,-1,-1,-1,-1,-1],"loss_changes":[1.8247137E0,5.11646E0,2.2241895E0,3.2227304E0,1.5596519E0,8.568335E0,6.8449106E0,0E0,1.7336403E0,6.731777E-1,1.8291501E0,6.420576E0,9.340312E0,9.937044E0,9.396553E0,0E0,0E0,0E0,0E0,0E0,0E0,0E0,0E0,0E0,0E0,0E0,0E0,0E0,0E0],"parents":[2147483647,0,0,1,1,2,2,3,3,4,4,5,5,6,6,8,8,9,9,10,10,11,11,12,12,13,13,14,14],"right_children":[2,4,6,8,10,12,14,-1,16,18,20,22,24,26,28,-1,-1,-1,-1,-1,-1,-1,-1,-1,-1,-1,-1,-1,-1],"split_conditions":[7.1064656E-4,6.606966E-4,1.6233191E-3,2.2600242E-1,6.9351215E-4,1.5614307E-3,2.0726686E-3,1.180191E-1,4.2648846E-1,5.6986636E-1,4.0643984E-1,4.90887E-1,6.403402E-1,1.8625387E-3,2.6119994E-3,4.64168E-3,-2.3869887E-2,-9.773545E-2,-6.723528E-3,-7.613114E-2,2.450499E-2,9.24367E-3,-1.500837E-2,3.2387774E-2,1.8988591E-1,-3.7034806E-5,-4.1023426E-2,2.0351108E-2,-3.509165E-3],"split_indices":[1,1,1,3,1,1,1,0,3,3,3,3,3,1,1,0,0,0,0,0,0,0,0,0,0,0,0,0,0],"split_type":[0,0,0,0,0,0,0,0,0,0,0,0,0,0,0,0,0,0,0,0,0,0,0,0,0,0,0,0,0],"sum_hessian":[1.8277959E3,1.04315926E2,1.72348E3,8.951756E1,1.4798365E1,5.768335E2,1.1466464E3,1.1333163E0,8.838425E1,9.188962E0,5.609402E0,5.3522656E2,4.1606945E1,2.4465878E2,9.019876E2,5.4694336E1,3.3689907E1,8.127281E0,1.0616814E0,2.099512E0,3.5098898E0,3.8381335E2,1.5141322E2,3.8327038E1,3.2799082E0,1.4639609E2,9.826271E1,2.1628845E2,6.8569916E2],"tree_param":{"num_deleted":"0","num_feature":"4","num_nodes":"29","size_leaf_vector":"1"}},{"base_weights":[-3.334819E-4,-4.2907484E-2,2.1985315E-2,-1.914001E-2,-4.8288196E-1,2.8351936E-1,-4.266002E-3,1.7108433E-2,-2.65513E-1,-5.8773464E-1,9.763299E-2,2.0836468E-1,8.603889E-1,-1.4387394E-1,2.9911935E-2,2.5763325E-4,1.2844911E-1,-4.0974434E-2,3.8351953E-2,-4.2361185E-2,-9.062293E-2,2.567151E-2,-9.326848E-2,-6.1362833E-2,1.346436E-1,-7.59366E-2,-9.993176E-3,2.392776E-2,1.17093434E-4],"categories":[],"categories_nodes":[],"categories_segments":[],"categories_sizes":[],"default_left":[0,0,0,0,0,0,0,0,0,0,0,0,0,0,0,0,0,0,0,0,0,0,0,0,0,0,0,0,0],"id":66,"left_children":[1,3,5,7,9,11,13,15,17,19,-1,21,23,25,27,-1,-1,-1,-1,-1,-1,-1,-1,-1,-1,-1,-1,-1,-1],"loss_changes":[1.7382042E0,6.5698886E0,8.241006E0,5.3446317E0,5.501091E0,4.567647E0,5.2131886E0,9.614413E0,7.3420186E0,1.2192583E0,0E0,5.65661E0,9.638991E0,5.7354016E0,5.281758E0,0E0,0E0,0E0,0E0,0E0,0E0,0E0,0E0,0E0,0E0,0E0,0E0,0E0,0E0],"parents":[2147483647,0,0,1,1,2,2,3,3,4,4,5,5,6,6,7,7,8,8,9,9,11,11,12,12,13,13,14,14],"right_children":[2,4,6,8,10,12,14,16,18,20,-1,22,24,26,28,-1,-1,-1,-1,-1,-1,-1,-1,-1,-1,-1,-1,-1,-1],"split_conditions":[4.198056E-1,4.131227E-1,4.5078978E-1,3.5668274E-3,1E0,4.4775212E-1,1.361503E-3,3.4246035E-3,1E0,2.1049082E-3,9.763299E-2,4.4653705E-1,1.2037507E-3,4.6658567E-1,1.6852356E-3,2.5763325E-4,1.2844911E-1,-4.0974434E-2,3.8351953E-2,-4.2361185E-2,-9.062293E-2,2.567151E-2,-9.326848E-2,-6.1362833E-2,1.346436E-1,-7.59366E-2,-9.993176E-3,2.392776E-2,1.17093434E-4],"split_indices":[3,3,3,1,0,3,1,1,0,1,0,3,1,3,1,0,0,0,0,0,0,0,0,0,0,0,0,0,0],"split_type":[0,0,0,0,0,0,0,0,0,0,0,0,0,0,0,0,0,0,0,0,0,0,0,0,0,0,0,0,0],"sum_hessian":[1.82731E3,6.281556E2,1.1991545E3,5.9695166E2,3.1203896E1,1.0849098E2,1.0906636E3,5.211991E2,7.5752594E1,2.9669218E1,1.5346774E0,9.7190216E1,1.1300762E1,2.1386623E2,8.767973E2,5.162813E2,4.9177675E0,6.2280895E1,1.3471695E1,2.1117336E1,8.551882E0,9.398284E1,3.2073767E0,2.7372167E0,8.563545E0,1.3166327E1,2.006999E2,1.0495085E2,7.7184644E2],"tree_param":{"num_deleted":"0","num_feature":"4","num_nodes":"29","size_leaf_vector":"1"}},{"base_weights":[-4.137264E-4,-1.7036073E-3,7.0290394E-2,1.543223E-3,-2.8618392E-1,-1.1098594E-2,9.8584644E-2,-1.0978426E-2,-8.4131396E-1,2.2719971E-4,-1.8934323E-2,5.7643432E-2,-1.182461E-3,-3.1151626E-2,1.6173746E-2,-1.1833638E-1,7.2891596E-3],"categories":[],"categories_nodes":[],"categories_segments":[],"categories_sizes":[],"default_left":[0,0,0,0,0,0,0,0,0,0,0,0,0,0,0,0,0],"id":67,"left_children":[1,3,-1,5,7,9,11,13,15,-1,-1,-1,-1,-1,-1,-1,-1],"loss_changes":[1.6586694E0,1.6858245E0,0E0,2.2155352E0,3.1372838E0,3.8086832E0,1.0988646E1,8.177228E-1,2.2167163E0,0E0,0E0,0E0,0E0,0E0,0E0,0E0,0E0],"parents":[2147483647,0,0,1,1,3,3,4,4,5,5,6,6,7,7,8,8],"right_children":[2,4,-1,6,8,10,12,14,16,-1,-1,-1,-1,-1,-1,-1,-1],"split_conditions":[9.5E-1,9.777585E-2,7.0290394E-2,6.683002E-3,6.2089914E-1,7.223572E-1,7.468469E-3,4.6840826E-1,1.4251752E-1,2.2719971E-4,-1.8934323E-2,5.7643432E-2,-1.182461E-3,-3.1151626E-2,1.6173746E-2,-1.1833638E-1,7.2891596E-3],"split_indices":[2,1,0,1,3,3,1,3,1,0,0,0,0,0,0,0,0],"split_type":[0,0,0,0,0,0,0,0,0,0,0,0,0,0,0,0,0],"sum_hessian":[1.8260272E3,1.8236802E3,2.347042E0,1.8040844E3,1.9595798E1,1.5969337E3,2.0715074E2,1.378277E1,5.813027E0,1.4864207E3,1.1051302E2,3.8087536E1,1.690632E2,4.7367887E0,9.045981E0,4.0160174E0,1.7970098E0],"tree_param":{"num_deleted":"0","num_feature":"4","num_nodes":"17","size_leaf_vector":"1"}},{"base_weights":[-4.156476E-4,-2.3183554E-2,3.683056E-2,4.326062E-3,-6.956772E-1,-8.55298E-2,1.2373928E-1,-1.0260483E-2,3.6656082E-1,-8.578909E-1,-1.0852938E-1,1.9198464E-1,-1.5897666E-1,9.067217E-1,7.436307E-2,2.709247E-3,-2.9691277E-2,1.0303029E-1,2.4832448E-2,-3.663703E-2,-1.0593108E-1,2.7907396E-2,-6.7443594E-2,1.731939E-3,1.9870816E-1,-6.3467495E-2,-8.229177E-3,-1.8720292E-2,1.5508075E-1,2.3012524E-2,-6.649451E-3],"categories":[],"categories_nodes":[],"categories_segments":[],"categories_sizes":[],"default_left":[0,0,0,0,0,0,0,0,0,0,0,0,0,0,0,0,0,0,0,0,0,0,0,0,0,0,0,0,0,0,0],"id":68,"left_children":[1,3,5,7,9,11,13,15,17,19,21,23,25,27,29,-1,-1,-1,-1,-1,-1,-1,-1,-1,-1,-1,-1,-1,-1,-1,-1],"loss_changes":[1.5500579E0,2.0989502E1,7.3848567E0,5.7673583E0,4.1535435E0,5.9124947E0,1.5623844E1,1.12460375E1,3.0600276E0,3.0562572E0,2.556426E0,1.904293E1,8.291723E0,1.7191313E1,8.415886E0,0E0,0E0,0E0,0E0,0E0,0E0,0E0,0E0,0E0,0E0,0E0,0E0,0E0,0E0,0E0,0E0],"parents":[2147483647,0,0,1,1,2,2,3,3,4,4,5,5,6,6,7,7,8,8,9,9,10,10,11,11,12,12,13,13,14,14],"right_children":[2,4,6,8,10,12,14,16,18,20,22,24,26,28,30,-1,-1,-1,-1,-1,-1,-1,-1,-1,-1,-1,-1,-1,-1,-1,-1],"split_conditions":[5.3341436E-1,5.1215065E-1,2.3930331E-3,1E0,6.2004034E-3,5.5164033E-1,2.5126745E-3,4.059362E-3,3.547995E-1,2.0907284E-3,9.660429E-3,2.2308417E-3,5.662211E-1,6.1543137E-1,6.3183475E-1,2.709247E-3,-2.9691277E-2,1.0303029E-1,2.4832448E-2,-3.663703E-2,-1.0593108E-1,2.7907396E-2,-6.7443594E-2,1.731939E-3,1.9870816E-1,-6.3467495E-2,-8.229177E-3,-1.8720292E-2,1.5508075E-1,2.3012524E-2,-6.649451E-3],"split_indices":[3,3,1,0,1,3,1,1,3,1,1,1,3,3,3,0,0,0,0,0,0,0,0,0,0,0,0,0,0,0,0],"split_type":[0,0,0,0,0,0,0,0,0,0,0,0,0,0,0,0,0,0,0,0,0,0,0,0,0,0,0,0,0,0,0],"sum_hessian":[1.8258523E3,1.1334022E3,6.9244995E2,1.089815E3,4.3587357E1,2.8757864E2,4.048713E2,1.0485629E3,4.125207E1,3.379074E1,9.796618E0,5.984482E1,2.2773384E2,2.2987286E1,3.8188403E2,9.2848035E2,1.20082504E2,5.0710196E0,3.6181053E1,1.0641487E1,2.3149252E1,6.1150947E0,3.6815236E0,5.54583E1,4.386516E0,3.0605125E1,1.9712871E2,8.781689E0,1.4205597E1,1.8104657E2,2.0083745E2],"tree_param":{"num_deleted":"0","num_feature":"4","num_nodes":"31","size_leaf_vector":"1"}},{"base_weights":[-4.7092163E-4,-4.06639E-2,2.0515231E-2,1.929952E-2,-1.9671583E-1,2.5013527E-1,-2.9475777E-3,-4.9411814E-4,1.5324985E0,-5.1601064E-1,-2.20675E-2,-4.1787736E-2,3.6782444E-1,-6.906999E-2,5.256031E-2,1.39988875E-2,-7.605232E-3,4.907914E-3,2.4679922E-1,-7.625716E-2,1.3274371E-5,1.3898388E-2,-4.557371E-2,5.529203E-2,-4.5510318E-2,1.5032831E-1,9.914249E-3,-4.650989E-3,-5.6961585E-2,4.552378E-2,-2.1886417E-4],"categories":[],"categories_nodes":[],"categories_segments":[],"categories_sizes":[],"default_left":[0,0,0,0,0,0,0,0,0,0,0,0,0,0,0,0,0,0,0,0,0,0,0,0,0,0,0,0,0,0,0],"id":69,"left_children":[1,3,5,7,9,11,13,15,17,19,21,23,25,27,29,-1,-1,-1,-1,-1,-1,-1,-1,-1,-1,-1,-1,-1,-1,-1,-1],"loss_changes":[1.5398498E0,5.863526E0,6.462297E0,1.3577687E1,9.687084E0,3.835825E0,4.0011654E0,4.7706847E0,8.001454E0,7.820223E0,7.9883957E0,8.325792E0,2.4059818E1,5.591279E0,1.3067076E1,0E0,0E0,0E0,0E0,0E0,0E0,0E0,0E0,0E0,0E0,0E0,0E0,0E0,0E0,0E0,0E0],"parents":[2147483647,0,0,1,1,2,2,3,3,4,4,5,5,6,6,7,7,8,8,9,9,10,10,11,11,12,12,13,13,14,14],"right_children":[2,4,6,8,10,12,14,16,18,20,22,24,26,28,30,-1,-1,-1,-1,-1,-1,-1,-1,-1,-1,-1,-1,-1,-1,-1,-1],"split_conditions":[4.198056E-1,